#include "ngrc_weights.h"

const float ngrc_trained_weights[NUM_PCA_FEATURES][NGRC_EFFECTIVE_TERMS] = {
    { -0.009291f, 0.201799f, 0.137643f, -0.003516f, -0.001871f, -0.020797f, -0.014388f, -0.008055f, -0.005768f, 0.004130f, 
      -0.004064f, 0.009099f, -0.008484f, -0.001141f, -0.016105f, -0.007903f, -0.007854f, 0.005969f, -0.005483f, 0.001825f, 
      0.008217f, -0.001687f, -0.002274f, -0.013545f, -0.012243f, -0.000020f, 0.004965f, -0.003483f, -0.006333f, 0.004741f, 
      0.005465f, -0.001771f, 0.001147f, -0.003874f, -0.003399f, -0.000661f, -0.002197f, 0.005891f, 0.001534f, -0.000718f, 
      -0.001084f, 0.013917f, -0.028887f, -0.004630f, 0.002598f, -0.012872f, -0.005668f, -0.005901f, 0.000263f, 0.015371f, 
      0.009004f, 0.000555f, -0.000394f, 0.026891f, 0.013818f, 0.008426f, 0.004003f, 0.021932f, 0.013137f, -0.006899f, 
      -0.000694f, 0.010827f, 0.010812f, 0.007766f, 0.003696f, -0.003897f, -0.004697f, -0.007612f, -0.005701f, -0.003217f, 
      -0.005990f, -0.008861f, -0.005436f, -0.011522f, -0.008799f, -0.002290f, -0.003655f, 0.004556f, 0.001340f, -0.005181f, 
      -0.004397f, -0.031486f, -0.010219f, -0.007102f, -0.002265f, -0.000916f, -0.006822f, -0.007015f, 0.007636f, 0.008648f, 
      0.001274f, 0.002011f, 0.014078f, 0.013447f, 0.005235f, 0.003728f, 0.009075f, 0.011203f, -0.004531f, -0.003120f, 
      0.009947f, 0.010011f, -0.001880f, -0.000618f, -0.003271f, -0.003282f, -0.000656f, -0.003708f, -0.002356f, -0.004271f, 
      -0.008988f, -0.006260f, -0.007924f, -0.008205f, -0.003850f, -0.004512f, 0.002508f, 0.002358f, -0.006568f, -0.005315f, 
      0.039909f, 0.022514f, -0.010295f, -0.004838f, -0.000278f, -0.008660f, -0.002324f, -0.003686f, -0.000719f, -0.012259f, 
      -0.000442f, 0.008918f, -0.002945f, -0.000528f, 0.002615f, -0.002473f, 0.008340f, 0.003202f, 0.008706f, 0.004559f, 
      -0.016524f, -0.010543f, -0.001878f, -0.006624f, -0.001421f, 0.002167f, 0.009413f, 0.003818f, -0.002413f, -0.002788f, 
      -0.000162f, 0.001497f, 0.006570f, 0.005029f, -0.007771f, -0.002795f, 0.008734f, 0.004459f, 0.023683f, -0.007583f, 
      -0.005742f, -0.003086f, -0.002042f, -0.000450f, -0.004116f, -0.004138f, -0.009279f, 0.010241f, 0.004956f, -0.001541f, 
      -0.001707f, 0.003259f, -0.002153f, 0.002213f, 0.001754f, 0.005330f, 0.003018f, -0.011128f, -0.006291f, -0.003518f, 
      -0.003936f, -0.003327f, 0.002782f, 0.006217f, 0.003372f, 0.001519f, -0.001034f, 0.000846f, -0.000496f, 0.000289f, 
      0.005377f, -0.002878f, -0.002842f, 0.005208f, 0.005235f, 0.004259f, -0.000974f, -0.017227f, -0.008441f, -0.002674f, 
      0.004699f, 0.006415f, 0.007657f, -0.004235f, -0.004497f, -0.003779f, -0.002081f, -0.004231f, 0.004464f, -0.001323f, 
      0.001076f, 0.001704f, 0.004383f, -0.008817f, -0.008021f, 0.003659f, 0.000546f, 0.005433f, -0.002366f, -0.002891f, 
      -0.002811f, -0.003767f, -0.001684f, -0.006569f, -0.003427f, 0.000488f, -0.000911f, 0.002161f, 0.001910f, 0.002137f, 
      0.002802f, -0.003560f, -0.013204f, -0.010536f, 0.005715f, 0.002752f, 0.007651f, 0.008481f, -0.000289f, -0.005738f, 
      -0.001332f, -0.001910f, 0.001118f, 0.001308f, 0.000257f, 0.001593f, 0.002667f, 0.003952f, -0.006433f, -0.006031f, 
      0.002462f, 0.000589f, 0.000485f, 0.000484f, -0.005213f, -0.001306f, -0.002193f, -0.000949f, -0.002518f, -0.003510f, 
      0.002307f, 0.002255f, 0.004610f, 0.001884f, 0.002830f, 0.002210f, -0.001506f, -0.012261f, 0.023466f, 0.018707f, 
      0.001699f, 0.001797f, -0.011674f, -0.015707f, 0.000232f, -0.002657f, 0.008299f, 0.003166f, -0.008995f, -0.008638f, 
      -0.003480f, -0.001857f, -0.005606f, -0.005653f, 0.003417f, 0.003573f, -0.013636f, -0.004077f, -0.005361f, -0.003463f, 
      0.003542f, 0.000500f, -0.000115f, 0.001425f, -0.004036f, -0.000615f, 0.004507f, 0.001747f, -0.001954f, 0.000435f, 
      -0.007095f, 0.013593f, 0.015387f, -0.000480f, 0.002338f, -0.009750f, -0.011447f, -0.000900f, -0.002726f, 0.005347f, 
      0.005003f, -0.008329f, -0.007227f, -0.001399f, -0.001302f, -0.006370f, -0.003915f, 0.004917f, 0.005343f, -0.004836f, 
      -0.007401f, -0.006106f, -0.003595f, 0.000020f, 0.001427f, -0.000803f, -0.002259f, -0.005417f, -0.005103f, 0.002975f, 
      0.000145f, -0.005288f, -0.000842f, -0.000008f, -0.008031f, -0.003463f, -0.005024f, -0.001248f, -0.001494f, -0.002613f, 
      -0.002025f, -0.001014f, -0.006880f, 0.005502f, 0.002070f, -0.008777f, -0.006748f, 0.009109f, 0.005475f, -0.003212f, 
      0.001499f, -0.005973f, 0.000175f, 0.002855f, 0.001775f, 0.006139f, 0.002229f, 0.011366f, 0.006527f, 0.001587f, 
      -0.000226f, -0.000599f, 0.000645f, -0.003804f, -0.002761f, -0.005571f, -0.008706f, -0.005366f, -0.007606f, 0.001985f, 
      -0.002193f, -0.000600f, -0.005569f, -0.005266f, 0.002038f, 0.000525f, -0.007312f, -0.007698f, 0.007428f, 0.006658f, 
      -0.000768f, 0.002316f, 0.000868f, -0.002413f, 0.003504f, 0.002033f, 0.002910f, 0.003148f, 0.005610f, 0.005457f, 
      -0.003048f, -0.001983f, -0.002058f, 0.000042f, -0.001939f, -0.002236f, 0.011018f, -0.001782f, 0.002376f, -0.003585f, 
      -0.004962f, -0.003497f, -0.003401f, -0.002184f, 0.015022f, 0.008152f, -0.001040f, -0.002293f, -0.014609f, -0.009562f, 
      0.004640f, 0.000091f, -0.009518f, -0.004042f, 0.005874f, 0.002900f, 0.000006f, 0.000204f, 0.003680f, 0.002909f, 
      0.008375f, 0.005478f, -0.000558f, -0.001159f, -0.001857f, 0.001768f, 0.001349f, -0.003952f, -0.002400f, -0.003153f, 
      -0.004551f, -0.005055f, -0.002695f, 0.008423f, 0.007715f, -0.004383f, -0.003056f, -0.008110f, -0.007703f, 0.003303f, 
      0.003745f, -0.002752f, -0.004555f, 0.002082f, 0.005047f, 0.000439f, 0.000925f, 0.003682f, 0.003556f, 0.006747f, 
      0.004984f, 0.003269f, 0.000781f, -0.000503f, 0.000154f, 0.014512f, -0.000900f, 0.004480f, -0.000880f, -0.000320f, 
      -0.000759f, -0.001707f, 0.002440f, 0.003123f, 0.002467f, -0.005900f, -0.003323f, 0.004486f, 0.004227f, -0.005587f, 
      -0.002775f, 0.000225f, 0.001519f, 0.001621f, -0.000227f, -0.004051f, -0.002349f, -0.002781f, -0.000164f, -0.003205f, 
      -0.004197f, -0.006625f, 0.001912f, 0.004415f, -0.003347f, -0.001433f, -0.003687f, -0.003372f, 0.000840f, 0.001906f, 
      0.000013f, 0.000356f, -0.002476f, -0.002269f, 0.003593f, 0.003805f, 0.001029f, -0.002288f, 0.006063f, 0.002453f, 
      -0.000853f, 0.000863f, -0.001929f, -0.001580f, -0.001150f, -0.002505f, -0.002511f, -0.000902f, -0.001345f, -0.001254f, 
      0.005851f, 0.000748f, 0.006873f, 0.003308f, -0.005921f, -0.003494f, -0.001277f, 0.001074f, -0.001771f, -0.000464f, 
      0.004385f, 0.002624f, -0.002097f, -0.000052f, -0.000067f, 0.000136f, 0.002129f, 0.001471f, 0.001761f, -0.001700f, 
      -0.003456f, -0.000783f, 0.003513f, 0.002129f, 0.000577f, -0.000286f, -0.002913f, 0.005160f, 0.004143f, -0.005222f, 
      -0.002827f, 0.002040f, -0.000727f, -0.001834f, -0.000041f, 0.003656f, 0.002352f, 0.000597f, 0.000161f, 0.001766f, 
      0.002195f, 0.000025f, -0.000820f, 0.000779f, 0.001218f, -0.002615f, 0.000196f, 0.001178f, 0.001389f, 0.000100f, 
      -0.000214f, 0.008164f, -0.004168f, -0.004330f, 0.002073f, -0.008151f, -0.005602f, 0.002668f, 0.003542f, -0.001468f, 
      -0.002079f, 0.002643f, 0.001444f, 0.000001f, -0.000095f, 0.006451f, 0.003645f, 0.006331f, 0.002553f, -0.000995f, 
      0.000495f, 0.001771f, 0.000832f, 0.004417f, 0.000502f, -0.005385f, -0.000726f, 0.001757f, -0.004297f, -0.003835f, 
      0.002446f, 0.002727f, 0.003006f, -0.000207f, 0.002205f, 0.003120f, -0.002480f, -0.001266f, 0.004143f, 0.003994f, 
      -0.000610f, 0.004058f, -0.002216f, -0.000878f, -0.000070f, -0.001261f, 0.002308f, 0.000958f, 0.012318f, 0.007550f, 
      -0.003544f, -0.002416f, -0.007823f, -0.000427f, 0.001466f, 0.001132f, -0.006823f, -0.003620f, 0.000477f, 0.001484f, 
      0.004883f, 0.000799f, 0.001555f, 0.000202f, 0.013070f, 0.004820f, -0.004433f, -0.001592f, 0.002310f, 0.000633f, 
      0.005413f, -0.001129f, -0.001869f, -0.004742f, -0.005060f, 0.001272f, 0.001690f, -0.005148f, -0.005384f, 0.002092f, 
      0.000406f, 0.002761f, 0.004413f, -0.001166f, 0.000382f, 0.006038f, 0.008027f, -0.004592f, -0.003495f, 0.003441f, 
      0.004811f, -0.001526f, -0.004553f, 0.004832f, 0.004713f, 0.005234f, 0.004705f, -0.001881f, -0.000384f, 0.002528f, 
      -0.000546f, 0.005554f, 0.004170f, 0.003464f, 0.002011f, -0.000511f, -0.000743f, -0.007195f, -0.003582f, 0.001311f, 
      0.002608f, -0.005247f, 0.003262f, 0.005241f, 0.003592f, 0.004294f, -0.002388f, -0.001397f, 0.002463f, 0.000887f, 
      0.003985f, 0.005288f, -0.001224f, 0.005205f, 0.000262f, -0.001355f, -0.003487f, -0.004672f, 0.002142f, 0.003403f, 
      -0.003145f, -0.008782f, -0.009085f, -0.004914f, 0.011669f, 0.002762f, -0.000625f, 0.000613f, -0.005922f, -0.003909f, 
      -0.001695f, -0.002468f, 0.006580f, 0.000524f, 0.005480f, 0.004596f, 0.003191f, 0.000530f, -0.008539f, -0.006414f, 
      -0.004277f, 0.004352f, 0.005001f, -0.000027f, -0.000061f, -0.004599f, -0.003345f, -0.002890f, -0.003406f, 0.003268f, 
      0.001780f, 0.003703f, 0.002238f, 0.000985f, 0.002282f, 0.001639f, -0.000633f, -0.000625f, 0.003327f, 0.001457f, 
      -0.001511f, -0.004930f, -0.003500f, -0.002935f, -0.000471f, -0.006985f, -0.000975f, -0.001106f, -0.002651f, 0.002409f, 
      0.000340f, -0.004414f, 0.003086f, 0.000151f, -0.001536f, 0.002131f, -0.002484f, -0.003238f, -0.000511f, -0.000412f, 
      -0.002107f, -0.001305f, -0.000521f, 0.000639f, -0.001017f, 0.000564f, 0.008599f, 0.000937f, 0.002132f, 0.002714f, 
      -0.003744f, 0.001361f, -0.002432f, -0.001196f, 0.000741f, -0.001635f, 0.002195f, 0.004411f, -0.004085f, -0.000002f, 
      0.001972f, 0.001769f, 0.002849f, 0.000945f, 0.001248f, 0.001504f, 0.000192f, 0.000400f, 0.000649f, 0.002394f, 
      0.004312f, -0.001372f, 0.000684f, 0.000148f, -0.001773f, -0.001780f, 0.000092f, -0.002159f, -0.001212f, -0.000035f, 
      0.002663f, -0.004236f, -0.002388f, 0.000034f, 0.000072f, -0.003993f, 0.000402f, -0.000950f, -0.000162f, -0.000660f, 
      -0.000326f, 0.002309f, 0.000326f, -0.000483f, -0.000952f, 0.000985f, -0.003970f, -0.004715f, -0.004513f, -0.003511f, 
      -0.002130f, -0.000226f, 0.003005f, 0.000150f, 0.001697f, 0.001144f, -0.005571f, -0.002193f, -0.005480f, 0.001598f, 
      0.001561f, -0.000006f, 0.003144f, 0.002580f, -0.000686f, -0.002188f, -0.001613f, 0.005829f, 0.003319f, -0.001605f, 
      0.001836f, -0.004659f, -0.003216f, -0.005959f, 0.003624f, 0.003945f, -0.001194f, -0.000327f, -0.001924f, -0.003153f, 
      0.003877f, 0.004734f, -0.000045f, -0.001436f, -0.002492f, -0.001143f, -0.003500f, -0.001456f, 0.000337f, -0.000262f, 
      -0.000355f, 0.005719f, 0.001573f, -0.001170f, -0.000084f, -0.000338f, 0.000402f, -0.003727f, 0.010136f, 0.004187f, 
      0.001039f },
    { 0.010006f, -0.002684f, -0.000359f, 0.186451f, 0.134420f, -0.009785f, -0.016535f, 0.009299f, 0.010301f, -0.032323f, 
      -0.016069f, 0.016812f, 0.001538f, -0.005684f, 0.012082f, -0.002106f, -0.000883f, 0.006127f, -0.000804f, 0.000275f, 
      0.003270f, -0.000241f, 0.002039f, 0.010373f, 0.019357f, 0.002233f, -0.002494f, 0.004802f, 0.006272f, -0.007772f, 
      -0.003740f, -0.002407f, -0.000365f, -0.006040f, -0.003123f, -0.002868f, -0.001467f, -0.004743f, -0.002798f, -0.002121f, 
      -0.007004f, -0.006537f, -0.007956f, 0.049931f, 0.026183f, -0.011835f, -0.007531f, -0.000510f, -0.009674f, -0.002606f, 
      -0.003316f, -0.001421f, -0.013385f, 0.002627f, 0.013064f, -0.003521f, -0.001904f, 0.000958f, -0.002301f, 0.011297f, 
      0.003627f, 0.006609f, 0.004675f, -0.017551f, -0.012156f, -0.002579f, -0.008327f, 0.000157f, 0.005109f, 0.006068f, 
      0.003462f, -0.001391f, -0.001863f, -0.000486f, 0.001932f, 0.008541f, 0.006400f, -0.005098f, 0.000560f, 0.008096f, 
      0.002579f, -0.001508f, 0.027918f, 0.024577f, -0.008914f, -0.009141f, -0.000962f, -0.002839f, -0.001906f, -0.000839f, 
      -0.009550f, -0.007301f, 0.010778f, 0.015144f, -0.002666f, -0.000769f, -0.002755f, -0.000599f, 0.003702f, 0.001997f, 
      0.003733f, 0.004044f, -0.007679f, -0.011502f, -0.004030f, -0.004589f, 0.001781f, -0.001093f, 0.004491f, 0.002728f, 
      0.001495f, 0.000778f, -0.000575f, 0.001242f, 0.004537f, 0.003587f, 0.000221f, 0.000637f, 0.004713f, 0.002962f, 
      0.007383f, 0.005838f, 0.013475f, 0.012658f, 0.005703f, 0.016209f, -0.019012f, -0.018041f, 0.011555f, 0.006425f, 
      0.007087f, 0.008626f, -0.008311f, -0.001346f, 0.003068f, 0.010368f, 0.016194f, 0.019148f, 0.017576f, 0.010868f, 
      0.006387f, 0.000848f, -0.005720f, -0.003945f, 0.000434f, -0.008284f, 0.002494f, -0.002421f, 0.001250f, 0.002006f, 
      -0.013595f, -0.005759f, -0.000880f, -0.001166f, -0.010222f, -0.006848f, -0.002624f, -0.001428f, 0.007033f, 0.010555f, 
      0.013036f, 0.017679f, 0.012994f, -0.015864f, -0.015647f, 0.003851f, 0.005080f, 0.000789f, 0.001708f, -0.007459f, 
      -0.005433f, 0.004398f, 0.005961f, 0.014367f, 0.016144f, 0.010719f, 0.009642f, 0.003374f, 0.004283f, -0.004133f, 
      -0.004999f, -0.000354f, -0.003473f, -0.000153f, -0.002592f, 0.002469f, 0.002340f, -0.005562f, -0.005279f, -0.000292f, 
      -0.000378f, -0.009220f, -0.006917f, -0.002767f, -0.001829f, -0.007138f, -0.011613f, -0.006203f, -0.007391f, 0.010568f, 
      0.010467f, -0.000192f, -0.000452f, -0.004295f, -0.001211f, -0.001731f, -0.001977f, -0.002105f, -0.004543f, -0.007173f, 
      -0.007720f, -0.001268f, 0.001325f, -0.007277f, -0.007557f, 0.000149f, -0.000749f, 0.006765f, 0.006746f, 0.001238f, 
      -0.000138f, -0.000710f, -0.000633f, 0.003504f, 0.002508f, -0.000874f, -0.000354f, 0.003935f, 0.002726f, 0.000628f, 
      0.000587f, -0.007539f, -0.007563f, -0.007134f, 0.009906f, 0.013728f, -0.001451f, -0.003162f, -0.000330f, -0.002658f, 
      -0.002334f, -0.001542f, -0.000672f, -0.007140f, -0.005452f, -0.008140f, -0.003441f, -0.000092f, -0.005596f, -0.006507f, 
      -0.000003f, -0.000198f, 0.005591f, 0.008104f, 0.000225f, 0.001842f, -0.001713f, -0.000775f, 0.002967f, 0.002087f, 
      -0.000461f, -0.001004f, 0.004059f, 0.002803f, -0.001762f, -0.001290f, -0.021057f, -0.005977f, 0.004503f, 0.003727f, 
      -0.000347f, 0.002818f, 0.013113f, 0.007219f, -0.007020f, -0.003144f, -0.005109f, -0.004703f, 0.004411f, 0.002220f, 
      -0.006097f, -0.007611f, 0.009914f, 0.003682f, -0.000486f, -0.000749f, 0.005216f, 0.002707f, 0.005205f, 0.006469f, 
      0.004345f, 0.000916f, 0.003944f, 0.002564f, -0.000307f, 0.000828f, 0.009087f, 0.007037f, -0.003414f, -0.002848f, 
      -0.007852f, 0.005078f, 0.004829f, 0.000880f, 0.001801f, 0.002435f, 0.005195f, -0.003364f, -0.002048f, -0.003403f, 
      -0.003172f, 0.002219f, 0.001020f, -0.007444f, -0.005542f, 0.002427f, 0.003695f, -0.002176f, -0.002512f, 0.001057f, 
      0.003447f, 0.002737f, 0.005376f, 0.001331f, 0.001969f, 0.004440f, 0.003249f, 0.001995f, 0.000704f, 0.006055f, 
      0.008632f, 0.000987f, -0.002608f, -0.001501f, -0.005875f, -0.004643f, 0.000179f, -0.002833f, -0.003007f, 0.003981f, 
      0.001067f, -0.000109f, 0.001717f, 0.003507f, 0.000622f, -0.002952f, -0.004073f, 0.012429f, 0.010265f, 0.001389f, 
      0.002642f, -0.005606f, -0.006220f, -0.002856f, -0.001790f, 0.001421f, 0.000623f, 0.003163f, -0.000016f, -0.000380f, 
      -0.001517f, -0.003595f, -0.001671f, -0.001882f, -0.001103f, -0.002114f, 0.001023f, 0.000321f, 0.000848f, -0.001524f, 
      0.003504f, 0.003275f, -0.001242f, 0.005587f, 0.002776f, 0.003252f, -0.000765f, -0.002288f, 0.008092f, 0.009766f, 
      0.003327f, 0.001592f, -0.006896f, -0.006016f, -0.002857f, -0.001860f, -0.000677f, 0.001359f, -0.002055f, 0.001957f, 
      -0.000416f, 0.000380f, -0.002146f, -0.002255f, 0.001173f, 0.001291f, -0.004653f, -0.003655f, -0.000050f, 0.005344f, 
      0.004898f, 0.001213f, 0.002146f, 0.000426f, -0.010916f, -0.005566f, -0.002455f, -0.001813f, 0.003852f, 0.003593f, 
      -0.000424f, 0.003397f, 0.005117f, -0.000846f, -0.002451f, 0.003090f, -0.004139f, -0.000169f, -0.003491f, 0.001685f, 
      0.002621f, -0.001374f, 0.001938f, 0.001436f, -0.001808f, -0.000295f, -0.000166f, 0.005023f, 0.004767f, 0.003483f, 
      0.003834f, 0.002722f, 0.003313f, -0.002547f, -0.005332f, -0.003009f, -0.003033f, 0.003040f, 0.003986f, 0.003479f, 
      -0.001419f, -0.001180f, 0.001268f, -0.000985f, 0.001316f, 0.000736f, 0.000165f, 0.001403f, 0.001104f, -0.001716f, 
      0.001108f, 0.001855f, 0.002328f, -0.002448f, -0.001797f, -0.010593f, -0.008624f, 0.003409f, 0.000461f, 0.005144f, 
      0.001608f, 0.009281f, 0.006165f, -0.004769f, -0.003122f, -0.004261f, -0.001661f, -0.000882f, 0.000201f, 0.006736f, 
      0.004290f, -0.002785f, -0.002989f, 0.001834f, 0.000116f, 0.002380f, 0.000465f, 0.000193f, 0.001545f, 0.000776f, 
      0.000771f, -0.003089f, -0.001726f, -0.002636f, 0.000932f, 0.006198f, 0.002857f, 0.004777f, 0.007018f, 0.009495f, 
      0.000488f, -0.000243f, -0.002411f, -0.002142f, -0.001181f, -0.001094f, 0.004312f, 0.004099f, -0.002791f, -0.004370f, 
      0.002117f, 0.002074f, -0.003067f, -0.000935f, 0.000101f, -0.000083f, 0.000394f, 0.000196f, -0.001597f, -0.002405f, 
      0.006707f, 0.002423f, 0.004080f, 0.003759f, -0.002096f, -0.003648f, -0.000564f, 0.002895f, -0.007348f, -0.005165f, 
      -0.002301f, 0.000364f, 0.000230f, 0.001666f, 0.004415f, 0.002754f, 0.001010f, -0.002625f, -0.001794f, -0.003521f, 
      -0.002128f, 0.001669f, 0.003761f, 0.003709f, -0.001419f, 0.001303f, 0.002357f, 0.003941f, 0.004779f, -0.000629f, 
      -0.005454f, 0.003378f, 0.000277f, -0.003862f, -0.006379f, 0.002048f, 0.000210f, 0.000608f, -0.000132f, 0.000765f, 
      0.002047f, -0.000302f, -0.000293f, -0.003357f, -0.001649f, -0.002747f, -0.001901f, 0.000088f, 0.002312f, 0.001817f, 
      0.001948f, 0.004994f, -0.002633f, -0.004561f, -0.005151f, 0.000126f, 0.001661f, 0.000956f, 0.000177f, 0.002981f, 
      0.001167f, -0.000065f, -0.000056f, 0.001258f, 0.000675f, -0.003243f, -0.000002f, 0.000325f, 0.000535f, 0.000627f, 
      -0.003349f, -0.000160f, -0.001062f, -0.000500f, 0.002351f, 0.000638f, -0.001953f, -0.005308f, 0.001217f, 0.003456f, 
      0.004465f, 0.004005f, -0.000075f, 0.000677f, 0.000002f, -0.002612f, -0.000837f, 0.001348f, -0.001175f, -0.001552f, 
      -0.000168f, 0.003453f, -0.004634f, -0.000774f, -0.001683f, 0.000862f, 0.003312f, 0.001841f, -0.001800f, -0.004367f, 
      -0.000098f, -0.001334f, 0.005750f, 0.002887f, 0.000810f, -0.000235f, 0.005331f, 0.001324f, -0.005463f, 0.001515f, 
      -0.002180f, -0.000242f, 0.001915f, 0.002083f, 0.004822f, 0.000478f, 0.005703f, 0.000496f, -0.001439f, -0.002711f, 
      0.001005f, -0.001892f, 0.001569f, 0.005215f, 0.001977f, -0.001250f, 0.000746f, 0.003294f, 0.005530f, 0.000347f, 
      -0.000657f, -0.000594f, -0.004225f, 0.001855f, 0.001067f, 0.000471f, 0.005311f, 0.002569f, 0.003382f, -0.001493f, 
      0.000079f, 0.005427f, -0.003090f, 0.000016f, 0.000215f, -0.004948f, -0.003985f, 0.000919f, -0.002420f, 0.001016f, 
      -0.000400f, -0.003772f, -0.003054f, 0.002872f, 0.005050f, -0.005874f, -0.005695f, 0.004893f, -0.000725f, 0.002225f, 
      0.002090f, 0.003109f, -0.000541f, 0.000187f, -0.004016f, -0.003892f, -0.001288f, -0.002471f, 0.000252f, -0.002644f, 
      -0.004308f, -0.001167f, 0.002423f, 0.002299f, -0.005035f, -0.006040f, -0.002318f, 0.002447f, 0.001956f, 0.001531f, 
      -0.002651f, -0.002384f, 0.002891f, 0.002418f, -0.006276f, 0.004452f, 0.000073f, 0.000542f, 0.008051f, 0.002497f, 
      0.002892f, -0.000824f, 0.002449f, -0.001352f, -0.002163f, -0.001857f, -0.004359f, -0.001755f, 0.000688f, 0.002579f, 
      0.002116f, 0.003962f, 0.000901f, 0.001083f, -0.000075f, 0.002000f, 0.004395f, -0.001937f, -0.000235f, 0.001497f, 
      0.001405f, -0.001276f, -0.001090f, -0.001844f, -0.003588f, 0.006082f, -0.000167f, 0.005806f, 0.001659f, 0.000847f, 
      -0.000885f, -0.003928f, -0.000671f, -0.003879f, 0.001993f, 0.003242f, 0.003838f, 0.003088f, 0.001050f, -0.000180f, 
      -0.000942f, 0.004979f, 0.001359f, 0.004103f, 0.001537f, -0.000311f, 0.000109f, -0.000892f, -0.000045f, -0.005052f, 
      0.002377f, 0.000414f, 0.000400f, 0.000312f, -0.001799f, 0.000591f, -0.006771f, -0.001561f, 0.003640f, -0.001329f, 
      0.000975f, 0.004180f, -0.000050f, -0.001675f, -0.003999f, -0.002239f, -0.000819f, -0.000367f, -0.003518f, 0.001980f, 
      -0.001188f, -0.002089f, 0.000088f, 0.003013f, 0.000273f, -0.000089f, -0.000429f, -0.003179f, -0.003424f, 0.002240f, 
      0.000056f, -0.001635f, -0.002405f, 0.003899f, -0.002493f, 0.000890f, 0.000673f, 0.001573f, 0.001024f, 0.001074f, 
      -0.001051f, -0.005197f, -0.001252f, 0.001588f, 0.001293f, 0.003740f, 0.001974f, 0.001954f, -0.001845f, 0.002105f, 
      0.003446f, 0.003107f, -0.001603f, -0.003521f, -0.000542f, 0.000669f, 0.009913f, 0.002463f, 0.006052f, 0.002856f, 
      0.004863f, 0.001335f, 0.003894f, 0.000236f, -0.002655f, -0.002755f, 0.009214f, 0.002061f, 0.002153f, -0.000699f, 
      0.003695f, -0.000732f, 0.003848f, -0.003026f, -0.003313f, 0.008473f, -0.000265f, 0.001396f, 0.004227f, 0.002195f, 
      0.000624f, -0.000104f, -0.000713f, 0.003772f, 0.001681f, 0.004555f, 0.000937f, 0.000109f, -0.001199f, -0.001466f, 
      -0.003421f, 0.001407f, 0.003379f, 0.001325f, -0.004873f, -0.001011f, 0.002530f, 0.001063f, 0.001316f, -0.000369f, 
      -0.004904f, 0.003131f, 0.000804f, -0.000168f, -0.000864f, 0.005123f, -0.001181f, 0.001106f, -0.000388f, -0.000454f, 
      0.003636f },
    { -0.006675f, -0.027278f, -0.016024f, -0.012644f, -0.019726f, 0.083567f, 0.047862f, -0.011451f, 0.001259f, -0.086927f, 
      -0.050860f, 0.017272f, -0.005035f, 0.010184f, 0.013889f, -0.010681f, 0.001979f, -0.007578f, 0.000918f, -0.010837f, 
      0.011059f, -0.000341f, 0.007631f, -0.008636f, -0.001022f, 0.002622f, 0.002101f, -0.002197f, -0.008275f, -0.003425f, 
      -0.005110f, -0.004481f, 0.002171f, -0.005153f, 0.001634f, 0.002133f, 0.006975f, 0.002743f, -0.006049f, -0.002816f, 
      0.003552f, -0.011109f, 0.004150f, -0.011851f, -0.011456f, 0.010370f, 0.002058f, -0.016702f, -0.006966f, -0.010409f, 
      0.002575f, 0.007038f, 0.006236f, -0.010273f, -0.007405f, -0.005886f, -0.001131f, -0.003154f, 0.004602f, -0.004230f, 
      0.001645f, 0.000005f, 0.002951f, -0.007577f, -0.007739f, 0.005769f, 0.002104f, 0.006134f, 0.000640f, -0.002845f, 
      -0.003749f, -0.003297f, -0.003463f, -0.004547f, -0.003563f, -0.000113f, 0.000161f, 0.002158f, 0.001476f, 0.001836f, 
      0.002374f, 0.000557f, -0.006396f, -0.007191f, 0.000940f, 0.001408f, -0.009111f, -0.010047f, -0.000650f, 0.001400f, 
      0.007943f, 0.005754f, -0.007330f, -0.006319f, -0.005526f, -0.002534f, 0.004032f, 0.002663f, -0.001766f, 0.000130f, 
      0.000635f, 0.001304f, -0.003667f, -0.003938f, 0.001845f, 0.001506f, -0.000604f, -0.001071f, -0.001036f, -0.005977f, 
      0.000613f, -0.003568f, 0.000657f, -0.002934f, 0.001577f, 0.000107f, -0.000493f, 0.002892f, 0.001277f, 0.001813f, 
      0.006276f, 0.008112f, -0.018187f, -0.011487f, -0.003562f, -0.005127f, 0.005977f, 0.010486f, -0.003761f, -0.003556f, 
      -0.001706f, 0.001759f, -0.000121f, -0.000178f, -0.006821f, -0.007683f, -0.006005f, -0.007604f, -0.000590f, -0.000124f, 
      -0.007282f, -0.005579f, -0.002057f, -0.001494f, 0.003269f, 0.004012f, 0.001149f, 0.000528f, 0.001680f, 0.000427f, 
      0.001953f, 0.004798f, -0.002543f, 0.000220f, 0.002098f, 0.003325f, 0.000432f, -0.001963f, 0.008511f, -0.015040f, 
      -0.015063f, -0.005595f, -0.003539f, 0.011475f, 0.008255f, -0.009422f, -0.004429f, 0.000561f, 0.002751f, 0.001587f, 
      0.000769f, -0.012068f, -0.007404f, -0.004079f, -0.008135f, -0.000276f, -0.003940f, -0.004899f, -0.004992f, -0.001773f, 
      -0.000270f, 0.006835f, 0.003850f, 0.001823f, 0.000886f, 0.000119f, 0.000388f, 0.001774f, 0.004390f, -0.000855f, 
      -0.001357f, 0.002995f, 0.001680f, -0.000642f, 0.000273f, -0.000277f, 0.013506f, 0.011309f, 0.008735f, -0.016295f, 
      -0.005408f, 0.011307f, 0.005651f, -0.006285f, -0.008099f, -0.006169f, 0.002865f, 0.007437f, 0.004291f, 0.001311f, 
      0.007251f, -0.004679f, 0.000277f, 0.005139f, 0.002683f, 0.003639f, 0.001283f, -0.006977f, -0.003534f, -0.000017f, 
      -0.001986f, -0.000540f, -0.000027f, 0.003021f, 0.001967f, 0.004793f, 0.004117f, -0.001954f, -0.000548f, 0.000150f, 
      0.001890f, -0.001904f, 0.010988f, 0.010697f, -0.005450f, -0.008823f, 0.004928f, 0.005433f, -0.004212f, -0.005540f, 
      -0.002784f, 0.001880f, 0.003364f, 0.002281f, -0.000511f, 0.001584f, -0.004162f, -0.002016f, 0.001829f, 0.001126f, 
      0.002855f, 0.002286f, -0.003793f, -0.002275f, -0.000906f, -0.001309f, -0.002976f, -0.001160f, -0.000217f, -0.000752f, 
      0.001611f, 0.002231f, 0.000811f, -0.000335f, 0.000893f, 0.001902f, 0.009974f, 0.008071f, -0.008987f, -0.006628f, 
      0.007518f, 0.003522f, -0.000645f, 0.001492f, -0.003790f, -0.000816f, -0.002949f, 0.000732f, 0.003407f, 0.003327f, 
      -0.001782f, -0.001437f, 0.000863f, 0.002079f, 0.003917f, 0.002154f, 0.001187f, 0.002618f, 0.003041f, 0.000533f, 
      0.001491f, -0.002224f, 0.001341f, 0.001393f, -0.001100f, 0.000140f, -0.002858f, -0.000354f, 0.000401f, 0.000939f, 
      0.006121f, -0.004325f, -0.003781f, 0.004057f, 0.004025f, 0.003115f, 0.001351f, -0.001139f, 0.000444f, -0.000176f, 
      -0.000678f, 0.000952f, 0.003031f, -0.004978f, -0.000281f, 0.005823f, 0.002282f, 0.003725f, 0.003626f, -0.000393f, 
      0.000041f, 0.000126f, 0.001774f, 0.000677f, 0.002280f, 0.001152f, 0.000645f, -0.001080f, -0.001584f, -0.000054f, 
      -0.000461f, 0.001427f, 0.000615f, -0.009750f, -0.001677f, -0.001374f, -0.001717f, 0.006880f, 0.006237f, 0.003814f, 
      0.000202f, -0.005497f, -0.000280f, 0.002965f, -0.001214f, 0.004571f, 0.002964f, -0.003802f, -0.002362f, -0.005102f, 
      -0.004308f, 0.006318f, 0.003295f, 0.003942f, 0.001724f, -0.001399f, -0.002659f, -0.003676f, -0.001249f, -0.006382f, 
      -0.006604f, -0.000744f, 0.000569f, -0.003093f, -0.002388f, -0.005268f, 0.001102f, 0.000808f, 0.004727f, 0.002459f, 
      0.002025f, -0.001013f, -0.000742f, -0.000833f, 0.002843f, 0.002467f, 0.003709f, 0.003480f, 0.000947f, 0.002154f, 
      -0.005466f, -0.002932f, 0.003663f, 0.003007f, -0.000793f, -0.000451f, 0.000417f, -0.001937f, -0.000860f, -0.002382f, 
      -0.005056f, -0.003034f, -0.000961f, 0.001255f, -0.001307f, -0.001326f, 0.012264f, 0.010863f, -0.012213f, -0.008459f, 
      -0.006712f, -0.000947f, 0.007586f, 0.005652f, -0.002459f, 0.001800f, 0.000905f, 0.001116f, 0.002061f, 0.004530f, 
      0.007152f, 0.001640f, -0.000331f, 0.001135f, -0.007296f, -0.005257f, -0.000650f, -0.000905f, -0.003955f, -0.002695f, 
      -0.002920f, -0.002404f, -0.003126f, -0.000486f, 0.002337f, 0.001652f, 0.007579f, -0.005447f, -0.007598f, -0.006413f, 
      -0.002373f, 0.005161f, 0.006896f, -0.001314f, -0.001093f, 0.001401f, 0.002269f, 0.001556f, 0.004456f, 0.003094f, 
      0.002467f, -0.000408f, 0.000149f, -0.005041f, -0.005007f, -0.002116f, -0.003065f, -0.004684f, -0.000280f, -0.001316f, 
      -0.001650f, -0.001776f, -0.000923f, -0.000694f, -0.001434f, 0.002926f, 0.005017f, -0.001830f, -0.000322f, -0.007814f, 
      -0.005210f, -0.003234f, -0.004018f, -0.006790f, -0.005390f, 0.001037f, -0.000565f, -0.004912f, -0.000461f, 0.004034f, 
      -0.000905f, 0.005200f, 0.002454f, 0.001616f, -0.001476f, -0.002070f, 0.001279f, 0.001017f, -0.002309f, -0.000002f, 
      -0.000150f, 0.000015f, -0.001767f, 0.004618f, 0.002698f, 0.000783f, -0.004120f, -0.005641f, -0.000939f, -0.004629f, 
      -0.004424f, -0.004810f, 0.000493f, 0.000029f, -0.003335f, -0.003918f, 0.000757f, 0.002621f, 0.005792f, 0.003219f, 
      0.002683f, -0.001373f, 0.000030f, -0.002772f, -0.002502f, -0.000807f, -0.000398f, 0.001664f, -0.000415f, -0.001590f, 
      0.002360f, 0.002506f, -0.000629f, -0.001181f, 0.001823f, -0.000700f, -0.000099f, -0.003331f, 0.003623f, 0.003433f, 
      -0.000458f, -0.002173f, -0.001321f, 0.001029f, 0.000154f, 0.001363f, -0.000628f, -0.001372f, 0.001112f, 0.001303f, 
      -0.002174f, -0.002607f, -0.001295f, -0.000281f, -0.000933f, 0.000911f, -0.001618f, 0.000808f, 0.002498f, 0.001060f, 
      0.000593f, 0.000479f, -0.000875f, 0.003809f, 0.004367f, 0.000607f, 0.001728f, -0.001480f, 0.001061f, -0.000237f, 
      -0.001506f, -0.002223f, -0.000704f, 0.001291f, 0.000700f, 0.002144f, -0.000216f, 0.001702f, 0.000033f, 0.002312f, 
      0.003092f, -0.009136f, 0.001076f, 0.004390f, 0.001419f, 0.001400f, -0.000423f, 0.001535f, 0.002512f, 0.003181f, 
      0.003385f, 0.002877f, -0.002109f, -0.004492f, -0.005406f, -0.003933f, -0.000120f, -0.002651f, -0.002212f, -0.003038f, 
      -0.004310f, -0.004349f, -0.000235f, -0.000533f, 0.000460f, -0.004805f, 0.002001f, 0.004376f, 0.000148f, -0.001231f, 
      0.005079f, 0.005720f, 0.003996f, 0.001856f, -0.000005f, -0.002371f, -0.001547f, -0.003655f, -0.000369f, 0.000704f, 
      0.000166f, -0.000398f, -0.000434f, -0.000858f, -0.001785f, -0.002036f, 0.003054f, 0.002823f, -0.003572f, -0.002731f, 
      -0.002547f, -0.001255f, -0.002180f, -0.001336f, -0.001169f, -0.000411f, -0.000551f, 0.000259f, 0.003309f, -0.000610f, 
      0.005553f, 0.000461f, 0.000050f, -0.000002f, -0.003637f, -0.000366f, -0.003441f, 0.000240f, -0.000331f, -0.002088f, 
      0.000577f, -0.002949f, -0.002807f, -0.000824f, -0.000153f, 0.001846f, 0.000236f, 0.000065f, -0.001489f, -0.000296f, 
      -0.000605f, 0.002581f, 0.003070f, -0.000409f, -0.000286f, 0.002310f, 0.001003f, 0.002050f, -0.001435f, -0.002372f, 
      -0.002653f, -0.000441f, 0.003175f, 0.001336f, 0.001434f, 0.005050f, 0.001163f, -0.000027f, 0.003456f, -0.001312f, 
      -0.001553f, -0.000219f, 0.000998f, -0.002197f, -0.002745f, -0.000239f, -0.000994f, 0.003480f, 0.002475f, -0.001260f, 
      -0.001768f, -0.000124f, 0.001237f, 0.003295f, 0.002999f, 0.006214f, 0.003373f, 0.002504f, -0.001444f, -0.005606f, 
      0.001983f, 0.003391f, -0.004158f, 0.002604f, 0.002168f, -0.000729f, 0.000929f, -0.001814f, -0.000618f, 0.001735f, 
      -0.001342f, -0.003810f, 0.000485f, -0.002849f, 0.007525f, 0.001728f, 0.001213f, 0.000428f, 0.001509f, -0.003418f, 
      -0.002335f, -0.002645f, -0.005350f, -0.002803f, 0.001636f, 0.001275f, -0.001837f, 0.000038f, -0.003552f, 0.000139f, 
      -0.000934f, 0.005427f, 0.005031f, 0.002869f, -0.000665f, 0.000407f, -0.001252f, -0.000373f, -0.003837f, -0.001067f, 
      -0.001177f, 0.002146f, -0.001374f, 0.001738f, 0.003529f, -0.006518f, 0.002356f, -0.000463f, 0.001827f, -0.000209f, 
      -0.004645f, 0.000524f, 0.001954f, -0.003526f, 0.000921f, 0.004030f, 0.000138f, 0.001822f, 0.002940f, -0.001471f, 
      0.001268f, -0.003150f, -0.001377f, -0.000071f, -0.000555f, 0.002624f, -0.000234f, -0.002305f, 0.001887f, -0.004250f, 
      -0.000864f, 0.000064f, 0.000228f, -0.000797f, -0.000551f, 0.002667f, 0.000516f, -0.000534f, -0.003168f, -0.000099f, 
      -0.000647f, -0.000471f, 0.002149f, -0.001273f, -0.000736f, -0.002182f, -0.001012f, -0.000242f, 0.004286f, 0.000678f, 
      -0.000259f, -0.000153f, -0.000396f, -0.000163f, -0.003300f, 0.000493f, -0.000613f, -0.002737f, -0.003432f, -0.002647f, 
      0.000255f, 0.000583f, 0.003267f, -0.002000f, 0.003014f, 0.000327f, 0.000133f, 0.002415f, 0.000790f, -0.000938f, 
      0.001115f, -0.000028f, 0.001765f, -0.000782f, 0.000300f, -0.001543f, 0.000366f, 0.000943f, 0.002953f, 0.002919f, 
      0.000975f, 0.004199f, -0.000190f, 0.000805f, -0.000826f, -0.001419f, -0.004344f, 0.000385f, 0.002067f, 0.001242f, 
      0.002566f, 0.001371f, -0.000123f, 0.001208f, -0.000265f, 0.000854f, -0.001037f, 0.000455f, 0.000665f, -0.000961f, 
      0.001809f, 0.000737f, 0.000018f, -0.000443f, -0.002442f, -0.004694f, 0.006071f, -0.001213f, 0.002552f, -0.000254f, 
      -0.001302f, -0.000174f, -0.000017f, -0.005840f, -0.001418f, 0.003089f, -0.002154f, -0.001592f, 0.001567f, -0.006128f, 
      -0.002641f, 0.002023f, -0.003183f, -0.001184f, 0.003267f, 0.000243f, -0.000456f, -0.000855f, -0.004139f, -0.000814f, 
      0.000657f, -0.000223f, 0.001212f, -0.004354f, -0.002238f, -0.000260f, -0.003300f, -0.001060f, -0.004693f, 0.001550f, 
      0.000206f },
    { 0.002833f, -0.005388f, 0.000557f, 0.007254f, 0.007016f, -0.014810f, 0.000882f, 0.215665f, 0.138849f, 0.003955f, 
      -0.008606f, -0.003638f, 0.006964f, 0.000748f, 0.007033f, 0.002475f, 0.004912f, -0.002556f, -0.004729f, -0.002976f, 
      0.000331f, -0.003113f, 0.001264f, 0.003055f, 0.006570f, -0.010587f, -0.006211f, 0.011356f, 0.017242f, -0.000508f, 
      0.001966f, -0.001494f, 0.000121f, 0.004140f, 0.001998f, 0.012799f, 0.007504f, 0.001718f, -0.000207f, 0.003054f, 
      0.000837f, -0.003737f, -0.004212f, 0.004909f, 0.001486f, -0.020392f, -0.012244f, 0.009691f, -0.011606f, 0.024921f, 
      0.016183f, 0.002647f, 0.000633f, -0.009120f, -0.013794f, 0.002105f, -0.002037f, 0.008029f, 0.001659f, -0.010148f, 
      -0.010387f, -0.005093f, -0.002747f, -0.004125f, -0.001088f, 0.004241f, 0.004310f, -0.013664f, -0.003506f, -0.006516f, 
      -0.005494f, 0.006717f, 0.002797f, 0.000330f, 0.001752f, -0.007107f, -0.000733f, 0.006593f, 0.003071f, -0.001832f, 
      0.000092f, 0.005331f, 0.001493f, -0.007519f, -0.007893f, -0.010067f, -0.004367f, -0.009925f, 0.013929f, 0.015302f, 
      0.006991f, -0.000414f, -0.007669f, -0.005274f, -0.001919f, -0.000033f, 0.002673f, 0.002858f, -0.006451f, -0.009036f, 
      -0.000686f, -0.001896f, -0.000254f, 0.000512f, 0.004836f, 0.005596f, -0.006561f, -0.003084f, -0.003424f, -0.005702f, 
      0.002383f, 0.002915f, -0.004414f, -0.002389f, -0.009300f, -0.004400f, 0.002282f, 0.006477f, -0.003571f, -0.003252f, 
      0.000031f, 0.011826f, -0.002716f, -0.003954f, -0.023605f, -0.005130f, -0.002649f, -0.001607f, -0.004872f, 0.000249f, 
      0.014014f, 0.005567f, -0.004595f, -0.001169f, -0.004491f, -0.004324f, 0.006540f, 0.004072f, -0.005865f, -0.006951f, 
      0.010766f, 0.002887f, -0.002484f, -0.003289f, 0.003030f, -0.001344f, 0.007341f, 0.009592f, 0.001837f, -0.001030f, 
      0.004817f, 0.003714f, -0.000049f, -0.000733f, 0.010807f, 0.008329f, -0.004138f, -0.003332f, 0.013498f, -0.003939f, 
      -0.005596f, -0.008063f, -0.004024f, -0.001290f, -0.002749f, -0.005924f, -0.002665f, 0.004872f, 0.002544f, 0.001778f, 
      -0.002767f, -0.002228f, -0.003246f, -0.000506f, 0.005353f, -0.004617f, -0.006858f, 0.002957f, 0.000139f, -0.004990f, 
      -0.003663f, -0.000076f, -0.001999f, 0.005698f, 0.005787f, -0.001219f, 0.000079f, 0.002911f, 0.003704f, 0.002784f, 
      0.002088f, 0.010818f, 0.006400f, 0.001654f, -0.000503f, 0.002566f, 0.007392f, 0.012425f, 0.007491f, -0.010039f, 
      -0.004300f, 0.004973f, 0.002673f, -0.003592f, 0.001563f, -0.001814f, -0.000465f, -0.005448f, -0.002620f, 0.002633f, 
      -0.000076f, 0.000100f, -0.002143f, -0.001127f, 0.003144f, 0.003837f, 0.002319f, 0.001548f, 0.001908f, 0.000414f, 
      -0.000202f, -0.000478f, -0.001495f, 0.002574f, 0.000896f, -0.001070f, 0.000409f, -0.004451f, -0.000672f, 0.001971f, 
      0.001969f, 0.000291f, 0.009133f, 0.007624f, -0.002896f, -0.007717f, 0.003983f, 0.002786f, 0.001660f, 0.000745f, 
      0.000356f, -0.001763f, -0.003428f, -0.001889f, 0.001209f, -0.001576f, -0.001484f, -0.001236f, 0.001575f, 0.005263f, 
      0.002694f, 0.003001f, 0.000169f, 0.002886f, 0.001634f, -0.000255f, 0.000867f, -0.001046f, 0.001198f, 0.000592f, 
      -0.001615f, -0.000281f, -0.003057f, -0.001715f, 0.002360f, 0.001686f, -0.018943f, -0.002129f, -0.006860f, -0.009215f, 
      -0.004080f, -0.007771f, 0.012539f, 0.006700f, 0.000436f, 0.001758f, -0.006188f, -0.004096f, 0.000428f, 0.000192f, 
      -0.000481f, 0.001934f, 0.006786f, 0.002656f, -0.002099f, 0.000722f, -0.003774f, -0.004172f, 0.004684f, -0.001064f, 
      -0.001900f, -0.001449f, -0.008347f, -0.002369f, -0.003792f, -0.001147f, 0.001297f, 0.001815f, 0.005708f, 0.008662f, 
      -0.004067f, -0.008045f, -0.008240f, -0.012644f, -0.008787f, 0.002642f, 0.002489f, 0.000389f, 0.000645f, -0.009608f, 
      -0.009213f, -0.000725f, 0.000327f, 0.002372f, 0.002789f, -0.000314f, -0.000032f, -0.001035f, -0.000486f, -0.003096f, 
      -0.006077f, 0.001316f, 0.002057f, -0.003813f, -0.002303f, -0.001501f, -0.000982f, 0.000746f, -0.000625f, -0.001637f, 
      -0.000112f, 0.010808f, 0.007688f, 0.003159f, 0.000039f, -0.008345f, -0.006138f, -0.003675f, -0.005415f, -0.000915f, 
      0.000270f, 0.008784f, 0.005463f, -0.004584f, -0.001641f, 0.002165f, 0.002004f, -0.001903f, -0.005626f, -0.004306f, 
      -0.002621f, 0.000633f, -0.002155f, -0.006471f, -0.002706f, 0.001265f, 0.001900f, -0.002594f, -0.003918f, 0.005733f, 
      0.004329f, 0.003483f, -0.000721f, -0.000892f, -0.003127f, 0.000517f, -0.004858f, -0.002882f, -0.006988f, -0.005846f, 
      -0.001771f, -0.002469f, 0.003473f, 0.004998f, 0.001327f, 0.001341f, 0.003315f, 0.002274f, -0.003122f, -0.004643f, 
      -0.003695f, -0.002726f, 0.001721f, -0.001491f, -0.002405f, -0.002821f, 0.000461f, 0.002649f, -0.002092f, -0.002846f, 
      0.001529f, 0.004356f, -0.000127f, -0.000657f, -0.002466f, -0.002569f, -0.014881f, -0.004421f, -0.016071f, -0.012962f, 
      -0.000879f, -0.002426f, 0.003801f, -0.000228f, -0.009378f, -0.004838f, -0.001475f, 0.001718f, -0.000537f, -0.000623f, 
      0.006699f, 0.004319f, 0.006006f, 0.002465f, -0.012059f, -0.002699f, 0.002214f, -0.001427f, 0.004628f, -0.001154f, 
      0.007375f, 0.004371f, 0.000012f, -0.002836f, -0.004943f, -0.001813f, -0.004553f, -0.014672f, -0.009787f, -0.002970f, 
      -0.002370f, 0.004278f, 0.003920f, -0.002489f, -0.001845f, -0.000157f, -0.001205f, -0.004145f, -0.004297f, 0.003768f, 
      0.003923f, 0.004174f, 0.000320f, -0.002021f, -0.004780f, 0.002374f, 0.000397f, 0.000019f, 0.002876f, 0.002288f, 
      0.004378f, -0.000201f, 0.000337f, -0.003328f, -0.006689f, 0.002372f, -0.001096f, 0.009797f, 0.003520f, 0.001601f, 
      0.000551f, -0.013564f, -0.008975f, 0.000507f, -0.000740f, 0.002253f, 0.004433f, 0.000819f, 0.000793f, -0.013257f, 
      -0.005811f, -0.002938f, 0.001210f, -0.003533f, -0.001985f, -0.003651f, -0.000487f, -0.001525f, -0.001313f, 0.002007f, 
      0.000512f, 0.000467f, -0.000350f, 0.006699f, 0.005064f, 0.005650f, -0.002144f, 0.000337f, -0.004904f, -0.008109f, 
      0.000797f, -0.000700f, 0.005665f, 0.004490f, 0.003260f, -0.001110f, -0.008156f, -0.003185f, 0.001145f, -0.000799f, 
      -0.004829f, -0.002115f, 0.000349f, -0.000309f, -0.003613f, -0.000267f, 0.002698f, 0.002699f, -0.000414f, -0.002878f, 
      0.002017f, 0.002190f, 0.000218f, -0.000927f, -0.002311f, -0.000892f, -0.001886f, -0.001639f, 0.003646f, -0.000381f, 
      0.005175f, -0.000040f, -0.004479f, -0.004371f, 0.002386f, 0.004154f, -0.003390f, -0.002713f, 0.004190f, 0.001906f, 
      -0.002032f, -0.005135f, 0.000118f, -0.000990f, 0.000385f, 0.000756f, 0.003031f, -0.001155f, -0.002481f, -0.003576f, 
      -0.003368f, -0.002026f, -0.003305f, 0.002426f, 0.001857f, -0.000160f, 0.003452f, -0.002791f, -0.003476f, 0.001249f, 
      0.001197f, -0.001297f, -0.001153f, 0.000855f, 0.004588f, -0.000747f, -0.000584f, -0.000432f, -0.001051f, 0.001675f, 
      0.001476f, 0.005296f, -0.000060f, -0.001395f, -0.001941f, 0.000441f, 0.001362f, 0.002280f, -0.001620f, -0.001861f, 
      0.003429f, -0.002103f, -0.000302f, -0.004374f, -0.001621f, 0.003557f, 0.000551f, -0.001896f, -0.002918f, 0.003533f, 
      0.000398f, 0.000140f, -0.003325f, 0.001497f, 0.001413f, 0.001135f, -0.002108f, -0.000217f, 0.001836f, 0.002382f, 
      -0.000769f, -0.002482f, 0.003413f, 0.002205f, 0.001996f, -0.002155f, -0.004607f, -0.002255f, 0.000150f, 0.003164f, 
      -0.002137f, -0.003887f, -0.000643f, 0.003402f, -0.001763f, -0.002394f, 0.002289f, -0.000933f, 0.001048f, 0.000011f, 
      -0.000552f, -0.002771f, 0.000746f, 0.001499f, -0.001667f, 0.000062f, 0.008746f, 0.002946f, -0.002165f, -0.000106f, 
      0.001681f, 0.002477f, -0.004299f, -0.001374f, 0.002838f, 0.002364f, -0.002045f, 0.001930f, 0.003704f, 0.001656f, 
      0.001387f, -0.002322f, -0.000931f, -0.000680f, -0.001885f, 0.000857f, -0.002365f, 0.001818f, 0.001714f, -0.001267f, 
      0.001669f, 0.000608f, 0.002548f, 0.000007f, -0.003013f, -0.000368f, 0.001478f, 0.000351f, -0.000674f, 0.002361f, 
      0.003359f, 0.000169f, -0.001404f, 0.001042f, -0.000189f, 0.009733f, 0.004902f, -0.002118f, -0.002302f, -0.002388f, 
      -0.001478f, 0.005145f, 0.004205f, 0.000738f, -0.001025f, -0.001372f, 0.000738f, -0.000685f, -0.002410f, -0.001170f, 
      0.000800f, -0.001613f, -0.000368f, 0.003082f, 0.007576f, 0.007709f, -0.002037f, 0.001283f, -0.000470f, -0.002832f, 
      0.002998f, 0.002930f, -0.002325f, 0.002460f, 0.001531f, 0.001000f, -0.001308f, 0.000966f, 0.000450f, 0.000938f, 
      -0.002213f, 0.000049f, -0.001115f, -0.001723f, -0.010192f, -0.004518f, -0.001094f, -0.003181f, 0.002262f, 0.001588f, 
      0.004869f, 0.003957f, -0.001635f, -0.003987f, -0.001576f, -0.000942f, -0.000821f, 0.001145f, 0.002952f, 0.001433f, 
      -0.001532f, -0.003279f, 0.000682f, -0.000458f, -0.002458f, 0.000402f, 0.003190f, 0.005246f, 0.002208f, -0.005226f, 
      -0.003227f, -0.001309f, -0.000511f, -0.004518f, -0.000188f, 0.000071f, 0.001077f, 0.002993f, 0.001460f, -0.003474f, 
      -0.002747f, 0.002366f, 0.001423f, -0.008998f, -0.005251f, 0.000440f, 0.001619f, -0.004817f, -0.002904f, 0.000862f, 
      0.000083f, -0.001598f, 0.001301f, -0.000228f, -0.006216f, -0.001474f, 0.000642f, 0.003390f, -0.005108f, -0.007663f, 
      0.002381f, 0.002053f, -0.001466f, -0.004898f, 0.000075f, -0.000593f, -0.005790f, -0.008962f, 0.002773f, 0.001516f, 
      0.001796f, 0.000454f, 0.005081f, 0.003624f, -0.000167f, 0.002105f, -0.002657f, -0.000669f, -0.003085f, -0.000883f, 
      -0.000686f, 0.003563f, 0.000277f, 0.000616f, 0.001718f, 0.003551f, 0.004322f, -0.000243f, 0.003928f, 0.002473f, 
      -0.000062f, -0.002015f, -0.000257f, 0.002010f, 0.003879f, -0.007939f, -0.002430f, -0.000641f, -0.001699f, 0.001578f, 
      -0.000253f, 0.008131f, 0.003654f, 0.002023f, 0.000642f, 0.003192f, -0.005512f, -0.007380f, 0.000333f, -0.000627f, 
      0.001615f, -0.002569f, 0.005519f, 0.006598f, -0.001179f, -0.000486f, -0.001682f, -0.002437f, -0.003690f, -0.004191f, 
      0.000715f, -0.000623f, 0.000414f, 0.002016f, -0.002363f, -0.000918f, 0.001320f, -0.003925f, -0.003839f, 0.000071f, 
      -0.000798f, 0.001163f, 0.002234f, -0.002739f, -0.002228f, -0.001720f, 0.000193f, 0.002616f, -0.001261f, -0.000011f, 
      0.001709f, -0.000325f, -0.001413f, -0.003133f, 0.000023f, 0.001723f, 0.001601f, -0.001211f, 0.000766f, -0.001893f, 
      -0.000011f, -0.000949f, 0.001293f, 0.000766f, -0.002674f, -0.000508f, 0.002732f, -0.000419f, -0.001280f, 0.001381f, 
      0.000568f, 0.003650f, 0.000957f, 0.004074f, -0.001584f, 0.001999f, 0.002555f, -0.000131f, 0.003419f, 0.002458f, 
      0.006954f },
    { 0.003098f, 0.009235f, -0.002106f, -0.033679f, -0.018530f, -0.089036f, -0.050524f, -0.000302f, -0.012300f, 0.135468f, 
      0.084100f, 0.036262f, 0.038377f, -0.003990f, -0.015525f, -0.006565f, -0.008961f, 0.009237f, -0.001905f, 0.003724f, 
      -0.010392f, -0.004900f, -0.014392f, 0.011531f, 0.003786f, 0.004770f, 0.004686f, -0.001850f, 0.008970f, -0.005746f, 
      0.001318f, 0.003118f, 0.000059f, -0.001908f, -0.001716f, -0.001410f, -0.008864f, -0.005979f, 0.003951f, 0.000963f, 
      -0.005204f, 0.009735f, -0.001136f, -0.001792f, 0.000679f, -0.005079f, 0.003122f, 0.021167f, 0.013485f, 0.008808f, 
      -0.006467f, 0.001851f, -0.002625f, 0.004203f, -0.001112f, -0.005450f, -0.000603f, 0.001669f, -0.005979f, 0.004226f, 
      0.002177f, -0.006927f, -0.003723f, 0.008571f, 0.004160f, -0.002810f, 0.002343f, -0.006303f, -0.002653f, 0.001005f, 
      0.002978f, 0.004859f, 0.000125f, 0.008704f, 0.005648f, 0.003248f, -0.001562f, 0.001288f, 0.000112f, -0.004462f, 
      -0.002527f, 0.002919f, -0.002189f, -0.001217f, 0.001510f, 0.006031f, 0.012508f, 0.013489f, -0.003189f, -0.004490f, 
      0.000679f, -0.006490f, 0.002089f, -0.002450f, -0.002365f, -0.001350f, -0.005590f, -0.005229f, 0.002101f, 0.005030f, 
      -0.002821f, -0.003078f, 0.005063f, 0.006584f, 0.001124f, -0.000494f, -0.002005f, -0.002279f, 0.002034f, 0.003599f, 
      0.003419f, -0.001049f, 0.004490f, 0.004561f, -0.005258f, -0.003374f, -0.000086f, 0.000144f, -0.001294f, -0.002349f, 
      -0.013416f, -0.014072f, 0.013223f, 0.009334f, 0.000047f, -0.000448f, -0.002725f, -0.001671f, 0.001239f, 0.002716f, 
      -0.008620f, -0.008006f, -0.001249f, -0.000528f, 0.003395f, 0.003131f, 0.004968f, 0.001218f, -0.004850f, -0.002905f, 
      0.009583f, 0.009393f, 0.002463f, 0.003206f, -0.002269f, -0.002897f, -0.006260f, -0.005611f, -0.001996f, 0.000030f, 
      0.000218f, -0.001299f, -0.001741f, -0.001051f, -0.000792f, 0.000382f, -0.003433f, -0.001539f, -0.014437f, 0.012432f, 
      0.013614f, -0.000399f, 0.002281f, -0.007206f, -0.000785f, 0.005350f, 0.002954f, -0.004478f, -0.006549f, 0.000925f, 
      0.002786f, 0.005454f, 0.002302f, 0.004639f, 0.002899f, -0.003159f, -0.001010f, 0.007683f, 0.007586f, 0.001257f, 
      0.005110f, -0.002759f, -0.004543f, -0.005965f, -0.004725f, -0.000728f, -0.001579f, -0.000006f, -0.002009f, -0.001517f, 
      0.000577f, 0.000726f, -0.000193f, -0.002338f, 0.000203f, 0.007370f, -0.005072f, -0.008412f, -0.004446f, 0.001291f, 
      -0.001734f, -0.005740f, -0.002914f, 0.008677f, 0.007803f, 0.001098f, 0.000290f, -0.008013f, -0.001704f, -0.001707f, 
      -0.001819f, -0.000366f, 0.000099f, -0.004507f, -0.002678f, -0.001839f, -0.002843f, 0.007241f, 0.003240f, 0.003096f, 
      0.000480f, -0.004332f, -0.002456f, -0.004556f, -0.000761f, -0.005130f, -0.005807f, 0.002726f, 0.001046f, -0.001740f, 
      -0.000739f, 0.006275f, -0.003848f, -0.000252f, 0.000518f, 0.006095f, -0.001685f, -0.003165f, 0.008018f, 0.007359f, 
      -0.000675f, 0.002104f, -0.002292f, -0.003683f, -0.002793f, 0.000276f, 0.000493f, 0.001143f, -0.001652f, -0.001305f, 
      -0.005165f, -0.000347f, 0.003946f, 0.004880f, 0.000004f, -0.001816f, -0.000147f, -0.002625f, -0.002552f, -0.003109f, 
      -0.003167f, -0.003401f, 0.001262f, 0.000584f, -0.001614f, 0.001070f, -0.007590f, -0.011427f, 0.004847f, 0.000320f, 
      -0.014432f, -0.008508f, -0.005247f, -0.003371f, 0.000100f, -0.001004f, 0.005758f, 0.001333f, -0.007796f, -0.004233f, 
      0.001732f, 0.003961f, -0.003173f, -0.004737f, -0.005794f, -0.002962f, 0.003255f, 0.000342f, -0.006488f, -0.002322f, 
      0.001246f, -0.000801f, -0.003240f, -0.002962f, 0.006329f, 0.003257f, 0.002314f, -0.001299f, -0.000223f, -0.001514f, 
      -0.004962f, 0.002106f, 0.000126f, -0.010308f, -0.007617f, -0.006862f, -0.008285f, -0.003255f, -0.001443f, 0.001478f, 
      0.002616f, -0.003606f, -0.004595f, 0.002971f, 0.003662f, -0.007615f, -0.006250f, -0.003083f, -0.002713f, 0.000598f, 
      0.003528f, -0.003945f, -0.004462f, 0.000399f, -0.001392f, -0.004257f, -0.001454f, 0.002929f, 0.004679f, -0.000665f, 
      0.000394f, -0.002174f, -0.001229f, 0.008142f, 0.000431f, -0.005666f, -0.006150f, -0.000313f, 0.000267f, 0.004411f, 
      -0.000237f, 0.004497f, 0.001470f, -0.002740f, 0.001561f, -0.002971f, -0.001063f, 0.001113f, -0.001564f, -0.002205f, 
      0.000986f, -0.005399f, -0.006152f, 0.004314f, 0.004503f, 0.003885f, 0.004785f, 0.003421f, 0.003096f, 0.010109f, 
      0.006448f, -0.001074f, 0.000861f, 0.001309f, -0.000847f, 0.006300f, -0.005397f, -0.005221f, -0.004124f, -0.001813f, 
      0.003052f, 0.000436f, 0.000291f, 0.002661f, 0.000002f, -0.000744f, -0.000651f, -0.000836f, -0.002418f, -0.003282f, 
      -0.000481f, 0.001531f, -0.001067f, -0.004437f, 0.002158f, 0.002042f, 0.003575f, 0.001725f, 0.002132f, 0.000184f, 
      0.001573f, 0.004874f, -0.002021f, 0.000088f, 0.003376f, 0.002055f, -0.005606f, -0.009387f, 0.015641f, 0.009749f, 
      0.001392f, 0.001600f, -0.009440f, -0.006158f, -0.000902f, -0.000911f, -0.002210f, 0.000001f, 0.000640f, -0.000414f, 
      -0.002564f, -0.003640f, 0.001675f, 0.001198f, 0.003787f, 0.001197f, -0.000183f, 0.001239f, -0.000020f, -0.000324f, 
      0.004899f, 0.001241f, 0.001069f, 0.000214f, 0.000691f, -0.000341f, -0.006845f, 0.011123f, 0.010009f, 0.002007f, 
      0.003012f, -0.006483f, -0.006028f, -0.005479f, 0.001455f, 0.001074f, 0.001261f, -0.003732f, -0.001646f, -0.002949f, 
      -0.001779f, 0.001337f, 0.000206f, 0.004507f, 0.003189f, -0.001040f, 0.000981f, 0.001489f, -0.000356f, 0.004889f, 
      0.002126f, -0.000271f, -0.001800f, 0.005974f, 0.003078f, -0.001490f, -0.003937f, -0.004585f, -0.003340f, 0.004666f, 
      0.005238f, 0.007290f, 0.005342f, 0.005934f, 0.007150f, 0.003482f, 0.001383f, -0.001037f, -0.000446f, -0.000689f, 
      0.000509f, -0.003958f, -0.004717f, 0.001533f, -0.001679f, 0.004842f, 0.002202f, 0.001269f, 0.001682f, 0.000228f, 
      -0.000116f, -0.002007f, -0.000180f, -0.004043f, -0.006944f, -0.006094f, 0.003610f, 0.004933f, 0.006319f, 0.004706f, 
      0.003027f, 0.004204f, 0.001544f, 0.001030f, 0.002410f, 0.000240f, 0.001785f, -0.000280f, -0.003015f, -0.003335f, 
      -0.001403f, -0.000154f, -0.002014f, 0.003226f, 0.000354f, -0.001931f, -0.000482f, 0.002988f, -0.001211f, 0.000986f, 
      0.004013f, -0.000003f, -0.004986f, -0.003726f, -0.000002f, 0.000617f, 0.000360f, 0.001236f, -0.005067f, -0.002756f, 
      -0.003892f, -0.000867f, -0.002505f, -0.000424f, -0.000443f, -0.000414f, 0.003969f, 0.001397f, -0.002841f, 0.002197f, 
      0.000181f, -0.000829f, 0.003462f, -0.001040f, 0.000760f, 0.002412f, -0.000144f, -0.002044f, -0.004541f, 0.001162f, 
      -0.000710f, 0.000931f, 0.000296f, -0.001704f, -0.001121f, -0.001326f, -0.003263f, -0.001588f, 0.000380f, 0.001175f, 
      -0.000699f, 0.003669f, 0.001202f, 0.001121f, -0.001170f, 0.003890f, 0.001970f, 0.001656f, 0.000889f, -0.001376f, 
      -0.001690f, 0.013449f, -0.002243f, -0.005793f, -0.001553f, -0.001731f, -0.001164f, -0.001792f, -0.005770f, -0.009645f, 
      -0.006443f, -0.003628f, -0.003693f, 0.001811f, 0.001815f, 0.002976f, 0.003199f, 0.005508f, 0.002896f, 0.003599f, 
      0.002632f, 0.003846f, 0.002447f, 0.001668f, -0.000614f, 0.004327f, -0.000715f, -0.000877f, 0.000006f, -0.000231f, 
      -0.004170f, -0.002162f, -0.004145f, -0.004283f, -0.002215f, -0.002151f, 0.006124f, 0.004187f, 0.003384f, 0.001860f, 
      0.001192f, 0.005116f, 0.001640f, 0.002531f, -0.000021f, -0.000121f, 0.001372f, 0.000762f, 0.003065f, -0.000889f, 
      0.001000f, 0.000773f, 0.003961f, 0.001396f, -0.001486f, -0.002443f, 0.000865f, 0.000375f, -0.000876f, 0.001162f, 
      -0.003792f, -0.003816f, 0.003340f, 0.000605f, -0.000654f, -0.001374f, 0.002406f, 0.000339f, 0.001091f, -0.000524f, 
      0.000137f, 0.004393f, 0.002935f, 0.000595f, 0.001127f, -0.001407f, 0.002083f, 0.000578f, -0.001207f, -0.000954f, 
      0.001736f, -0.001595f, -0.003100f, -0.000246f, 0.002009f, -0.000101f, -0.003961f, -0.002985f, 0.002038f, 0.001290f, 
      0.004063f, 0.002602f, 0.002293f, -0.000674f, -0.001002f, -0.001001f, -0.000166f, -0.002095f, 0.000393f, 0.004506f, 
      0.001109f, -0.000207f, -0.002003f, -0.001502f, 0.000309f, 0.001632f, 0.002138f, -0.003905f, 0.000154f, -0.002408f, 
      0.000537f, 0.001417f, -0.002564f, -0.002186f, -0.002364f, -0.004133f, -0.002438f, -0.001233f, 0.000687f, 0.001491f, 
      -0.002406f, -0.000422f, 0.003251f, -0.001364f, 0.003276f, 0.003260f, 0.000230f, -0.000747f, 0.000432f, -0.001755f, 
      0.004458f, 0.004451f, 0.000423f, -0.000337f, -0.010044f, -0.008830f, 0.003371f, 0.003350f, 0.002254f, -0.001100f, 
      0.006186f, 0.003154f, 0.004623f, 0.004941f, -0.004733f, -0.004737f, 0.003750f, 0.001701f, 0.003793f, 0.000021f, 
      0.000100f, -0.010185f, -0.007995f, 0.000771f, 0.004609f, 0.003341f, -0.000741f, 0.002197f, 0.003064f, 0.003512f, 
      0.004698f, -0.006456f, -0.004102f, 0.002186f, 0.001074f, 0.005622f, -0.001411f, 0.000592f, 0.000686f, -0.004437f, 
      0.002170f, -0.002920f, -0.001298f, 0.000719f, 0.003672f, -0.003892f, -0.003025f, 0.000355f, 0.001259f, 0.001375f, 
      -0.000949f, 0.000328f, 0.001580f, -0.001227f, -0.001333f, -0.002707f, -0.000510f, -0.002193f, 0.001533f, 0.006308f, 
      -0.004285f, -0.001224f, -0.002926f, 0.001155f, 0.000409f, 0.003821f, -0.001146f, -0.005228f, 0.003854f, 0.001082f, 
      0.002186f, 0.002174f, 0.002517f, 0.003302f, 0.003988f, 0.002687f, -0.000654f, -0.001458f, -0.000757f, 0.000350f, 
      -0.001314f, 0.000640f, 0.001906f, 0.001612f, 0.001793f, 0.003514f, 0.003181f, 0.003575f, 0.004142f, -0.003496f, 
      0.002051f, 0.000656f, -0.000516f, -0.000139f, -0.005176f, 0.000426f, -0.000669f, -0.002686f, -0.002745f, -0.004448f, 
      -0.001845f, -0.001204f, -0.000010f, -0.000287f, 0.002630f, -0.000470f, 0.000510f, -0.001159f, -0.000736f, -0.003107f, 
      -0.004289f, -0.001685f, -0.002286f, -0.001695f, 0.002824f, 0.000198f, 0.000731f, -0.000332f, -0.002422f, -0.002111f, 
      -0.007399f, -0.004626f, 0.000399f, -0.001091f, 0.002829f, -0.000737f, -0.000605f, -0.000000f, -0.000490f, -0.004528f, 
      -0.002944f, -0.001273f, -0.001349f, 0.005289f, 0.001085f, 0.007438f, -0.001208f, -0.003450f, -0.004494f, 0.002500f, 
      0.001374f, 0.000115f, -0.000195f, 0.004279f, -0.004404f, -0.005862f, 0.000289f, 0.002993f, -0.000025f, -0.002410f, 
      0.005020f, -0.006027f, 0.001897f, 0.000789f, 0.000684f, 0.002340f, -0.004208f, 0.000108f, 0.001977f, -0.000668f, 
      0.002009f, 0.002982f, -0.003263f, 0.002947f, 0.002154f, 0.002007f, 0.001909f, 0.004938f, 0.003873f, 0.001046f, 
      -0.000596f },
    { -0.000926f, 0.006659f, -0.007618f, 0.014734f, -0.000631f, 0.022382f, -0.002626f, -0.007151f, 0.001945f, 0.033683f, 
      0.038606f, 0.188592f, 0.085724f, 0.021133f, 0.009736f, 0.004704f, 0.003262f, -0.008830f, 0.003893f, -0.009562f, 
      0.008165f, -0.006076f, -0.006201f, -0.002216f, 0.007969f, -0.006370f, -0.000191f, 0.008919f, 0.010705f, 0.004125f, 
      -0.004066f, -0.000838f, -0.001050f, 0.003183f, -0.003718f, -0.009623f, -0.012127f, 0.001837f, 0.000218f, -0.005434f, 
      -0.004828f, -0.000947f, -0.001154f, -0.000269f, -0.003195f, 0.007821f, 0.007984f, 0.003300f, 0.000154f, -0.002423f, 
      -0.007581f, 0.021718f, -0.000442f, 0.001061f, -0.005139f, -0.005503f, -0.004370f, -0.001751f, -0.000296f, 0.010766f, 
      0.007441f, 0.002767f, -0.000316f, -0.011358f, -0.006972f, 0.003869f, 0.001565f, -0.006771f, -0.001753f, 0.006852f, 
      -0.000160f, -0.000957f, 0.000838f, 0.004081f, 0.002543f, 0.008782f, 0.005334f, -0.001507f, -0.002444f, -0.000809f, 
      0.002833f, 0.003062f, -0.011701f, -0.018097f, 0.007859f, 0.009977f, 0.009894f, -0.001675f, -0.003869f, -0.006886f, 
      0.007978f, 0.000153f, -0.005845f, -0.004472f, -0.003840f, -0.002896f, 0.000248f, -0.001443f, 0.005584f, 0.002220f, 
      -0.002488f, -0.004998f, -0.006616f, -0.003986f, 0.005700f, 0.002355f, -0.004167f, 0.001409f, 0.004265f, -0.000346f, 
      0.001656f, 0.002625f, 0.004654f, 0.002860f, 0.002183f, 0.002905f, -0.001442f, 0.002929f, 0.001749f, -0.000511f, 
      0.005822f, -0.002248f, -0.002678f, -0.002436f, -0.004731f, -0.002022f, -0.001331f, 0.002691f, -0.014748f, -0.008421f, 
      -0.001462f, 0.004644f, 0.005043f, 0.002043f, 0.000715f, -0.001945f, -0.010159f, -0.007513f, 0.000381f, 0.000076f, 
      0.003090f, 0.002632f, -0.005625f, 0.000233f, 0.006190f, -0.000496f, 0.001136f, 0.003612f, -0.002732f, -0.001812f, 
      -0.003090f, 0.000604f, -0.000479f, -0.003916f, 0.003599f, 0.003561f, -0.003829f, 0.000309f, 0.000143f, -0.004895f, 
      0.000157f, -0.005643f, 0.002499f, 0.004070f, 0.000882f, -0.006674f, -0.005354f, 0.007305f, 0.002160f, 0.000593f, 
      0.002792f, 0.002273f, -0.001389f, -0.002872f, -0.006427f, -0.003500f, -0.003000f, 0.003339f, 0.000890f, -0.003808f, 
      0.000762f, 0.002952f, -0.001411f, 0.006159f, 0.003203f, 0.002746f, 0.000658f, 0.000958f, 0.000354f, -0.000256f, 
      -0.001780f, 0.004582f, 0.003509f, -0.005437f, -0.001772f, 0.006867f, 0.002391f, 0.006925f, 0.002902f, 0.002257f, 
      0.000112f, 0.014578f, 0.009289f, -0.011118f, -0.009708f, -0.005753f, -0.002087f, 0.008240f, 0.007632f, -0.000513f, 
      0.002068f, 0.002384f, 0.001804f, 0.000975f, 0.003112f, 0.006586f, 0.004020f, 0.000324f, 0.000839f, -0.006471f, 
      -0.007037f, -0.002079f, -0.001063f, -0.002521f, -0.001819f, -0.002847f, -0.000543f, -0.003416f, -0.000464f, 0.002535f, 
      0.002771f, 0.004735f, 0.007433f, 0.001863f, 0.001474f, 0.001521f, 0.010910f, 0.006897f, -0.006603f, -0.007675f, 
      -0.003230f, -0.002838f, 0.005864f, 0.006627f, -0.001898f, -0.000146f, 0.000543f, 0.002054f, 0.002465f, 0.003202f, 
      0.007247f, 0.003799f, -0.000183f, 0.002045f, -0.007070f, -0.003823f, -0.002041f, -0.003403f, -0.001812f, -0.003439f, 
      -0.001381f, -0.002064f, 0.001093f, -0.002869f, 0.003165f, 0.001152f, -0.004277f, -0.013188f, -0.013035f, -0.008183f, 
      -0.016107f, -0.007938f, -0.019562f, -0.015511f, 0.001817f, -0.002589f, 0.004772f, 0.002209f, -0.011458f, -0.006311f, 
      -0.000404f, -0.000376f, -0.000444f, 0.001395f, 0.006478f, 0.003446f, 0.004423f, 0.001243f, -0.010962f, -0.003833f, 
      0.000261f, -0.001473f, 0.005701f, -0.001183f, 0.007201f, 0.004857f, -0.002092f, -0.000998f, -0.006226f, -0.001183f, 
      -0.004469f, -0.008933f, -0.009400f, -0.008773f, -0.010791f, -0.014893f, -0.017938f, -0.000274f, -0.000909f, 0.003761f, 
      0.003846f, -0.004907f, -0.004482f, -0.003344f, -0.001566f, -0.002697f, -0.006202f, 0.004884f, 0.003445f, 0.001857f, 
      0.001588f, -0.004117f, -0.004695f, -0.001571f, 0.000037f, 0.004936f, 0.002318f, 0.004508f, 0.006887f, 0.000516f, 
      -0.001834f, -0.007364f, -0.002961f, -0.002750f, -0.004017f, -0.007452f, -0.005614f, 0.015927f, 0.011375f, 0.005898f, 
      0.002986f, -0.009281f, -0.006200f, 0.001855f, -0.001401f, 0.002498f, 0.001805f, 0.001438f, 0.000345f, -0.003104f, 
      -0.003339f, 0.002237f, 0.000316f, 0.004036f, 0.002140f, 0.001378f, -0.000351f, -0.000208f, 0.000816f, 0.002163f, 
      0.001311f, 0.000642f, -0.000371f, -0.001215f, 0.001485f, -0.002534f, -0.011173f, -0.004938f, 0.008432f, 0.009461f, 
      0.006274f, 0.005174f, -0.004848f, -0.006040f, 0.000584f, -0.001861f, 0.001810f, 0.001237f, -0.005443f, -0.005607f, 
      -0.002253f, -0.003029f, -0.000974f, 0.000900f, 0.003645f, 0.005347f, 0.000439f, -0.000579f, -0.000385f, 0.002536f, 
      0.003282f, 0.001703f, -0.001424f, 0.000117f, 0.001841f, 0.001128f, 0.002769f, -0.003896f, 0.009709f, 0.004916f, 
      0.001988f, 0.000213f, 0.008287f, 0.010660f, 0.002428f, 0.003887f, 0.004733f, 0.005202f, 0.012726f, 0.006543f, 
      -0.001433f, 0.001432f, 0.003775f, -0.003366f, -0.003771f, -0.003543f, -0.000010f, 0.001431f, -0.004127f, -0.005543f, 
      0.000821f, 0.000904f, -0.003797f, -0.004683f, 0.004280f, 0.004889f, -0.001221f, 0.002667f, 0.003170f, 0.002047f, 
      0.002050f, -0.000081f, 0.004252f, -0.001220f, 0.003032f, 0.004308f, 0.004095f, 0.002196f, 0.001503f, 0.001534f, 
      0.000905f, 0.002990f, -0.001262f, -0.004083f, -0.001436f, 0.000057f, 0.001411f, 0.000511f, -0.001631f, 0.002645f, 
      0.000901f, -0.002595f, -0.001979f, 0.009111f, 0.004225f, 0.010058f, 0.000464f, -0.010571f, -0.005763f, 0.002484f, 
      0.002176f, 0.007597f, 0.003131f, -0.007079f, -0.004732f, 0.007760f, 0.005399f, -0.006081f, -0.007324f, 0.006316f, 
      0.003781f, 0.006314f, 0.004193f, 0.002458f, 0.004626f, 0.001583f, -0.000738f, 0.003473f, 0.002348f, 0.003545f, 
      0.001464f, -0.001828f, -0.000687f, 0.001159f, -0.006053f, -0.004116f, 0.001270f, -0.001288f, 0.004060f, 0.003943f, 
      -0.006111f, -0.005752f, 0.004966f, 0.005658f, -0.006966f, -0.005340f, 0.002735f, 0.004730f, 0.002388f, 0.003544f, 
      0.004620f, 0.002586f, -0.000744f, 0.000738f, 0.000992f, 0.001456f, 0.004013f, 0.003868f, -0.001513f, -0.002308f, 
      0.004189f, -0.001237f, -0.001868f, 0.001194f, -0.000847f, 0.000916f, 0.002757f, -0.001770f, -0.003924f, -0.000192f, 
      -0.004663f, 0.000117f, -0.006341f, -0.004512f, -0.003502f, -0.000657f, 0.002628f, -0.000607f, -0.000019f, -0.000061f, 
      -0.000687f, 0.004357f, 0.001108f, -0.000455f, 0.002459f, -0.001170f, 0.002315f, 0.001720f, -0.001070f, -0.000967f, 
      0.001430f, -0.002011f, 0.000516f, -0.000345f, -0.001469f, -0.001939f, -0.003249f, -0.003739f, -0.004636f, -0.002746f, 
      -0.004234f, 0.001228f, 0.001914f, 0.001061f, -0.001872f, -0.000561f, 0.001347f, 0.000460f, 0.000225f, -0.000389f, 
      -0.000605f, -0.005594f, -0.002225f, 0.002813f, 0.002492f, 0.001377f, 0.001543f, 0.002386f, 0.000953f, 0.001408f, 
      0.000717f, 0.000196f, -0.003949f, 0.000521f, -0.001007f, 0.000044f, 0.000494f, 0.002187f, -0.000246f, -0.000867f, 
      0.003763f, -0.001398f, -0.002373f, 0.001959f, 0.001783f, -0.001180f, 0.002782f, 0.005252f, 0.001501f, -0.000018f, 
      0.002236f, 0.002571f, -0.000200f, 0.000451f, -0.001312f, -0.001970f, 0.000897f, -0.002889f, -0.000451f, 0.002600f, 
      0.002773f, -0.000020f, 0.001988f, 0.002526f, -0.002936f, 0.000939f, -0.000349f, 0.001047f, 0.001069f, -0.001591f, 
      -0.001838f, -0.001878f, 0.009838f, 0.004874f, 0.001148f, 0.000311f, 0.007460f, 0.002428f, 0.001850f, 0.001618f, 
      -0.002008f, -0.001351f, 0.006472f, -0.000136f, -0.002720f, -0.003105f, -0.000818f, 0.003339f, -0.004214f, 0.000383f, 
      0.002571f, -0.001665f, -0.001989f, 0.004439f, 0.002792f, -0.001597f, 0.000179f, 0.005523f, 0.000161f, 0.001933f, 
      0.001418f, -0.001644f, -0.000253f, 0.000066f, 0.001317f, 0.001328f, -0.003005f, -0.001487f, 0.000149f, 0.000076f, 
      -0.001747f, 0.000634f, 0.000844f, -0.003868f, -0.001896f, -0.001977f, -0.000735f, -0.000090f, 0.001258f, -0.000700f, 
      -0.001479f, -0.001349f, -0.001468f, -0.005988f, -0.000938f, 0.006275f, 0.004085f, -0.001153f, -0.001714f, -0.000230f, 
      0.000588f, 0.002187f, -0.001222f, -0.001862f, -0.000597f, 0.000734f, 0.002310f, -0.000646f, -0.001766f, -0.001035f, 
      -0.003327f, 0.001090f, -0.000192f, -0.002218f, 0.004525f, 0.004211f, -0.002124f, -0.001432f, 0.001985f, -0.000702f, 
      0.000192f, -0.001388f, 0.007040f, 0.003332f, -0.012872f, -0.006780f, 0.006397f, 0.001823f, 0.003360f, 0.002567f, 
      0.002664f, 0.002223f, 0.001899f, 0.003156f, -0.004585f, -0.002965f, 0.003622f, -0.001970f, 0.002349f, 0.003769f, 
      0.003982f, -0.010250f, -0.007021f, 0.003218f, 0.002692f, 0.004391f, 0.001970f, 0.001707f, 0.000271f, 0.003300f, 
      0.001610f, -0.001787f, -0.002115f, 0.000897f, 0.002408f, -0.000082f, 0.000031f, 0.000835f, 0.002610f, -0.005232f, 
      -0.003662f, 0.002333f, -0.000224f, 0.005743f, -0.000023f, 0.001393f, 0.002228f, -0.001372f, -0.000029f, 0.003089f, 
      0.000752f, 0.003084f, 0.001871f, 0.001167f, -0.001320f, -0.004155f, 0.001400f, 0.000391f, -0.000351f, 0.003665f, 
      0.002493f, 0.002391f, -0.001174f, -0.002379f, 0.001764f, 0.000288f, -0.007667f, -0.008042f, 0.003469f, 0.004822f, 
      0.004516f, 0.002347f, 0.000158f, 0.000802f, 0.003074f, 0.001945f, -0.002960f, -0.002765f, 0.003226f, 0.000449f, 
      -0.004443f, 0.005212f, 0.001175f, 0.004499f, 0.004652f, -0.000447f, 0.000470f, 0.005281f, 0.000859f, -0.003105f, 
      0.000282f, 0.001801f, 0.003411f, -0.000518f, -0.001090f, 0.003650f, 0.001981f, -0.003034f, -0.001403f, -0.002834f, 
      -0.001937f, 0.004207f, 0.003333f, -0.005335f, 0.000192f, 0.000405f, 0.001039f, 0.001239f, 0.000349f, 0.000808f, 
      -0.002179f, -0.001678f, 0.000443f, 0.005518f, 0.000795f, -0.002925f, -0.001075f, 0.000843f, 0.001003f, 0.000557f, 
      -0.005075f, -0.002515f, -0.002863f, -0.001380f, -0.000972f, 0.001302f, -0.001055f, 0.002349f, 0.000399f, -0.002011f, 
      -0.003120f, -0.002099f, -0.001886f, -0.000248f, -0.000077f, 0.000873f, -0.002660f, -0.002401f, 0.000811f, 0.001901f, 
      0.001215f, -0.002727f, -0.000584f, -0.000032f, -0.001386f, -0.004632f, 0.001719f, -0.000840f, -0.002217f, -0.000393f, 
      0.001653f, -0.004020f, 0.006244f, 0.002220f, 0.002422f, -0.000579f, -0.000982f, 0.005740f, 0.003132f, -0.002742f, 
      0.001850f, 0.001107f, 0.000411f, -0.000735f, 0.002820f, 0.001596f, 0.002281f, 0.001538f, 0.006397f, -0.000164f, 
      0.006252f },
    { -0.006945f, -0.005532f, -0.015673f, -0.009864f, 0.009238f, 0.011232f, 0.010082f, -0.001721f, 0.004656f, -0.004308f, 
      -0.017824f, 0.017505f, 0.008023f, 0.192570f, 0.082207f, 0.006395f, 0.012445f, 0.007542f, -0.003214f, 0.011241f, 
      0.008048f, 0.004327f, 0.004574f, 0.010815f, 0.024296f, -0.001993f, -0.007267f, -0.003586f, -0.000823f, -0.003591f, 
      0.000908f, 0.002124f, 0.000199f, 0.001214f, 0.003183f, -0.001260f, -0.010742f, -0.000600f, -0.005687f, -0.005701f, 
      -0.008999f, 0.019243f, 0.007114f, -0.006391f, 0.010222f, -0.004472f, 0.001165f, -0.006813f, -0.006990f, 0.000162f, 
      -0.010458f, 0.003077f, -0.003781f, 0.033656f, -0.000232f, 0.006786f, 0.000026f, 0.001622f, -0.001599f, -0.003319f, 
      0.001062f, 0.001603f, 0.001658f, -0.005003f, -0.000730f, 0.005990f, 0.003257f, -0.008969f, -0.001275f, -0.000395f, 
      0.002997f, 0.000822f, -0.000287f, -0.003160f, -0.001943f, -0.002517f, -0.002823f, 0.001567f, -0.002415f, -0.004702f, 
      -0.000217f, 0.009162f, 0.006348f, 0.007615f, -0.004362f, -0.004321f, -0.008168f, -0.015130f, 0.001752f, -0.003271f, 
      -0.003421f, -0.002346f, 0.012682f, 0.004071f, -0.000321f, -0.000674f, -0.001146f, -0.001021f, -0.000204f, 0.001926f, 
      0.001725f, 0.001115f, -0.002861f, -0.003899f, 0.003047f, 0.002732f, -0.005341f, -0.001377f, 0.004452f, 0.003303f, 
      -0.001173f, 0.000222f, -0.003926f, -0.002246f, -0.002853f, -0.005407f, -0.001336f, -0.000469f, 0.000785f, -0.000684f, 
      -0.005561f, -0.005272f, 0.001301f, 0.002571f, 0.016481f, 0.008417f, -0.005203f, -0.000473f, 0.001368f, 0.006627f, 
      -0.016467f, -0.010046f, 0.007838f, 0.001761f, 0.008427f, 0.001954f, 0.009139f, 0.003376f, -0.007431f, -0.002519f, 
      -0.003133f, 0.000808f, 0.002107f, 0.003032f, 0.008939f, 0.006084f, -0.005929f, -0.005067f, 0.003532f, 0.001035f, 
      0.007089f, 0.001543f, -0.001832f, 0.001356f, 0.005720f, 0.001743f, -0.007818f, -0.001501f, 0.002804f, 0.002606f, 
      0.000608f, 0.007147f, 0.009374f, -0.004263f, -0.004690f, 0.011321f, 0.007224f, -0.006264f, -0.008846f, 0.009299f, 
      0.002988f, 0.009881f, 0.004543f, 0.009420f, 0.005318f, -0.000146f, 0.000426f, -0.001302f, 0.000083f, 0.002378f, 
      0.002580f, 0.005410f, 0.005926f, -0.003939f, -0.006743f, 0.004146f, 0.001138f, 0.001944f, 0.000197f, -0.001559f, 
      0.001098f, 0.003750f, -0.002414f, -0.008663f, -0.000978f, -0.011750f, -0.006079f, -0.002097f, 0.000551f, 0.002771f, 
      0.005231f, -0.009797f, -0.008241f, 0.007456f, 0.004498f, -0.002452f, -0.000138f, -0.004092f, -0.002569f, -0.005906f, 
      -0.002538f, -0.006519f, -0.006724f, 0.001598f, -0.001231f, -0.002501f, -0.001945f, 0.000427f, -0.002557f, 0.007030f, 
      0.005183f, 0.001321f, 0.000944f, -0.001119f, -0.000574f, 0.001695f, -0.003650f, -0.000742f, 0.002391f, 0.001116f, 
      -0.002135f, -0.010607f, 0.001233f, -0.000367f, 0.006390f, 0.000772f, -0.008387f, -0.008523f, 0.011957f, 0.003177f, 
      0.000355f, -0.000411f, -0.004827f, -0.004250f, -0.008631f, -0.004508f, -0.007129f, -0.005026f, -0.001780f, -0.000083f, 
      -0.000834f, -0.002051f, -0.000152f, -0.001787f, 0.003536f, 0.006420f, 0.000699f, 0.001879f, -0.001257f, -0.000559f, 
      0.000434f, -0.000551f, 0.002492f, 0.002184f, 0.001730f, -0.001332f, 0.008902f, -0.001301f, -0.004795f, -0.005202f, 
      -0.019068f, -0.015037f, 0.006573f, -0.001767f, 0.008011f, 0.003249f, 0.000997f, -0.000254f, -0.016841f, -0.010351f, 
      0.001226f, 0.000947f, 0.001752f, 0.004187f, 0.001161f, 0.002674f, -0.013071f, -0.004112f, -0.003193f, -0.000111f, 
      -0.003030f, -0.001174f, -0.006498f, -0.000682f, -0.001541f, -0.004765f, -0.000352f, -0.000529f, -0.000384f, 0.000421f, 
      0.004716f, -0.006619f, -0.006724f, -0.015439f, -0.014893f, 0.008050f, -0.000947f, 0.004077f, 0.005574f, -0.000546f, 
      -0.001586f, -0.010574f, -0.010237f, -0.002386f, -0.002495f, 0.003768f, 0.003598f, 0.000282f, 0.003735f, -0.004327f, 
      -0.007093f, 0.000437f, -0.001440f, -0.001866f, -0.002227f, -0.002564f, 0.000652f, -0.004262f, -0.002838f, 0.003059f, 
      0.001444f, -0.003973f, 0.000142f, -0.007691f, -0.003935f, 0.018100f, 0.011292f, -0.004207f, -0.002348f, -0.005195f, 
      -0.002799f, 0.003865f, 0.002983f, 0.008192f, 0.007541f, 0.006753f, 0.007665f, 0.000815f, 0.000210f, -0.000702f, 
      -0.000974f, 0.001486f, 0.001317f, -0.007196f, -0.003945f, -0.001144f, -0.001682f, 0.001446f, -0.000091f, 0.004427f, 
      0.001911f, -0.000223f, -0.001627f, -0.000371f, 0.002501f, -0.003136f, 0.007150f, 0.014031f, -0.013211f, -0.001023f, 
      -0.004725f, -0.003408f, 0.002161f, 0.002430f, 0.005219f, 0.004360f, 0.003088f, 0.004357f, -0.000145f, 0.000577f, 
      0.001670f, 0.000438f, 0.004061f, 0.000051f, -0.003319f, -0.005307f, -0.000584f, -0.001903f, 0.006248f, 0.001196f, 
      0.001322f, 0.002846f, -0.001358f, -0.000400f, -0.001770f, 0.000238f, 0.004989f, 0.001743f, 0.015921f, 0.000475f, 
      -0.009463f, -0.005708f, 0.005163f, 0.001732f, 0.004855f, 0.000561f, -0.005555f, -0.003581f, 0.007311f, 0.005606f, 
      -0.005310f, -0.003819f, 0.006159f, 0.003584f, 0.007227f, 0.004415f, 0.002837f, 0.002583f, 0.004756f, 0.002130f, 
      0.002699f, 0.000045f, 0.002932f, 0.003467f, -0.002207f, -0.002027f, 0.002700f, 0.007045f, 0.004530f, -0.003839f, 
      -0.007687f, -0.000072f, 0.001475f, -0.002474f, 0.002719f, -0.003925f, -0.003204f, 0.002171f, 0.001812f, -0.003635f, 
      -0.004528f, 0.004992f, 0.004923f, 0.000636f, 0.004384f, 0.001033f, 0.002869f, -0.000748f, 0.002285f, 0.004377f, 
      0.000993f, 0.001140f, 0.002285f, 0.003747f, -0.004446f, 0.018192f, 0.007982f, 0.012915f, 0.003134f, 0.005085f, 
      0.004191f, -0.000284f, 0.003940f, 0.009243f, 0.004650f, 0.009934f, 0.006590f, 0.000546f, 0.000947f, -0.010500f, 
      -0.004409f, -0.001550f, -0.003366f, 0.004766f, 0.002616f, -0.006229f, -0.005885f, -0.001556f, -0.004755f, -0.011507f, 
      -0.007146f, -0.002700f, 0.002046f, 0.012694f, 0.004584f, 0.006958f, -0.001144f, 0.000172f, -0.003316f, -0.002790f, 
      0.000397f, 0.000989f, 0.006190f, 0.006664f, 0.003470f, 0.002099f, 0.002094f, -0.002185f, -0.000168f, 0.000576f, 
      0.000728f, 0.000614f, -0.003205f, -0.005657f, -0.005834f, -0.004597f, -0.000832f, -0.000876f, -0.000859f, -0.002677f, 
      -0.003841f, 0.002989f, 0.002785f, 0.000941f, -0.003123f, 0.000786f, -0.003442f, 0.003016f, 0.001349f, 0.002122f, 
      0.005500f, 0.002197f, -0.006642f, -0.003082f, 0.000398f, -0.000526f, -0.001057f, 0.001912f, -0.004426f, -0.001797f, 
      -0.004229f, -0.001922f, -0.003593f, -0.003282f, 0.002402f, 0.001213f, -0.003377f, 0.002063f, 0.002771f, -0.001564f, 
      0.000182f, 0.000052f, -0.004102f, 0.003900f, 0.002089f, 0.002811f, 0.005403f, -0.002876f, -0.001685f, -0.001593f, 
      -0.001031f, 0.000986f, -0.000441f, -0.001389f, -0.003340f, -0.003186f, -0.000443f, -0.003686f, -0.002488f, 0.000813f, 
      0.001835f, -0.003636f, 0.000372f, -0.003489f, -0.002668f, -0.004579f, -0.004185f, -0.004830f, -0.003780f, 0.002133f, 
      0.000919f, -0.000638f, 0.003982f, 0.000840f, 0.001975f, 0.000515f, -0.000494f, -0.001035f, 0.002042f, -0.000141f, 
      0.001754f, -0.000162f, -0.001417f, 0.001789f, 0.000462f, -0.004262f, -0.004634f, -0.002401f, -0.001302f, -0.002670f, 
      -0.002447f, -0.001900f, 0.001852f, 0.004319f, 0.003064f, 0.002191f, 0.004745f, 0.000361f, 0.001106f, -0.001482f, 
      -0.002418f, -0.000395f, 0.002671f, 0.000228f, -0.001989f, -0.001752f, 0.000182f, -0.001268f, 0.006064f, 0.001148f, 
      -0.007793f, -0.006214f, -0.002120f, -0.001659f, -0.003935f, -0.000190f, 0.013174f, 0.008026f, 0.003386f, 0.002425f, 
      -0.001138f, 0.001524f, -0.000714f, 0.003777f, 0.004569f, 0.001728f, 0.004862f, 0.006500f, -0.001376f, -0.001983f, 
      -0.002050f, -0.005720f, -0.004243f, 0.000441f, -0.001303f, -0.001659f, -0.000420f, 0.009399f, 0.007430f, 0.004856f, 
      0.000180f, -0.000479f, -0.002345f, -0.001881f, 0.001098f, 0.003065f, 0.003391f, 0.003597f, 0.000071f, -0.001684f, 
      -0.002789f, -0.006028f, -0.003541f, 0.000719f, 0.000386f, -0.000852f, -0.000796f, -0.000391f, 0.003569f, -0.004431f, 
      0.000040f, 0.004594f, 0.003269f, -0.000649f, 0.000346f, -0.002608f, -0.001405f, 0.001395f, -0.002011f, -0.001504f, 
      -0.001544f, -0.007232f, -0.001154f, 0.001070f, 0.000914f, 0.000621f, -0.001384f, 0.002061f, -0.000114f, -0.000261f, 
      0.004237f, 0.003110f, -0.002539f, 0.000053f, 0.000747f, -0.001183f, -0.001253f, 0.000942f, -0.000092f, 0.000641f, 
      -0.004517f, -0.005921f, -0.001304f, 0.000689f, 0.005815f, 0.001876f, 0.001482f, 0.000763f, -0.000090f, -0.000052f, 
      0.000231f, 0.001016f, -0.004047f, -0.002307f, -0.000992f, 0.001166f, -0.001657f, -0.002268f, -0.003683f, -0.000512f, 
      0.000754f, -0.003888f, 0.002625f, 0.003114f, 0.000233f, -0.000075f, -0.000573f, 0.001580f, -0.000500f, -0.001251f, 
      -0.002223f, -0.000009f, -0.001405f, -0.001510f, -0.001770f, -0.001897f, -0.000794f, -0.005199f, -0.000668f, 0.004423f, 
      0.000242f, -0.001523f, -0.000651f, -0.003495f, -0.002092f, -0.007010f, -0.002911f, -0.002828f, 0.000011f, 0.001081f, 
      -0.000915f, -0.001923f, -0.002772f, -0.004187f, 0.003017f, 0.003514f, 0.000889f, -0.001804f, 0.001677f, -0.000818f, 
      -0.001254f, -0.003138f, 0.003499f, 0.000508f, 0.000723f, -0.000470f, 0.003294f, -0.001995f, 0.003522f, 0.001788f, 
      -0.001952f, -0.001084f, 0.002502f, 0.002343f, 0.006943f, 0.001503f, 0.002814f, 0.001933f, 0.006722f, 0.000653f, 
      -0.002665f, 0.002815f, 0.001279f, 0.000882f, -0.002755f, -0.000003f, 0.000752f, 0.000593f, 0.000585f, 0.000985f, 
      0.000977f, 0.003261f, 0.005790f, -0.000330f, -0.003022f, 0.000643f, 0.000047f, 0.002238f, -0.002911f, -0.002871f, 
      -0.001357f, -0.002882f, -0.003465f, 0.000621f, 0.002175f, -0.001106f, 0.000130f, 0.000843f, 0.004346f, 0.001126f, 
      -0.000634f, -0.001048f, -0.002666f, -0.001450f, 0.001496f, 0.003234f, -0.006843f, -0.005910f, -0.000502f, -0.000255f, 
      -0.003690f, -0.003334f, 0.004917f, 0.001915f, 0.000986f, 0.001758f, -0.004862f, 0.000020f, 0.001543f, -0.001497f, 
      -0.002603f, 0.000236f, 0.004364f, -0.000108f, -0.001473f, -0.000798f, 0.000438f, 0.003315f, 0.000844f, -0.000726f, 
      0.000690f, -0.001454f, -0.000339f, -0.004051f, 0.001498f, 0.001366f, -0.000230f, 0.000121f, 0.000216f, 0.000166f, 
      0.014540f, 0.004145f, -0.002095f, 0.000836f, -0.006148f, -0.004614f, 0.003671f, 0.001535f, -0.002670f, -0.002060f, 
      -0.000442f, -0.002430f, -0.002267f, 0.001035f, 0.001915f, -0.005128f, 0.000906f, -0.001304f, 0.009549f, 0.002566f, 
      0.004304f },
    { 0.000078f, -0.003900f, -0.008893f, 0.005005f, 0.000863f, -0.010280f, 0.005923f, -0.001994f, 0.003422f, -0.011589f, 
      -0.008792f, 0.011403f, 0.005095f, 0.003659f, 0.013370f, 0.196786f, 0.045853f, 0.007597f, 0.006644f, -0.003143f, 
      -0.009112f, -0.005575f, -0.003498f, -0.005106f, 0.002465f, -0.002689f, -0.007033f, 0.005428f, 0.006986f, -0.007025f, 
      -0.001190f, -0.002543f, -0.000368f, -0.001198f, -0.003250f, -0.000747f, -0.008932f, 0.002759f, 0.000540f, 0.001903f, 
      0.002602f, 0.006975f, 0.003364f, -0.001335f, -0.001489f, -0.004390f, -0.001698f, -0.001479f, -0.003795f, -0.005601f, 
      -0.002479f, -0.002319f, -0.001372f, 0.004165f, -0.002548f, 0.017854f, -0.000046f, 0.010403f, 0.007367f, -0.005955f, 
      -0.002360f, 0.000137f, 0.003743f, -0.004716f, -0.000917f, 0.003489f, 0.002343f, -0.003453f, 0.001675f, -0.001300f, 
      0.000910f, -0.000666f, -0.001249f, -0.002204f, -0.001506f, -0.005573f, -0.001469f, 0.003646f, -0.000585f, 0.002111f, 
      0.000169f, 0.002850f, -0.003512f, -0.002780f, -0.005086f, -0.001788f, -0.000791f, 0.000721f, -0.002666f, -0.001815f, 
      -0.005364f, -0.001427f, -0.001269f, 0.000648f, 0.007746f, 0.000800f, 0.009218f, 0.005728f, -0.001682f, -0.006088f, 
      -0.000473f, 0.000209f, 0.001184f, -0.001551f, 0.002860f, 0.004110f, 0.000162f, 0.001604f, -0.001134f, 0.001642f, 
      0.000754f, 0.000848f, 0.002478f, -0.002133f, -0.003914f, -0.000836f, 0.001213f, 0.001441f, -0.001148f, -0.002878f, 
      -0.006270f, -0.006816f, 0.001568f, -0.000850f, -0.007439f, -0.003694f, 0.001843f, 0.003555f, 0.007132f, 0.002209f, 
      0.007186f, 0.001240f, -0.000346f, 0.004695f, 0.009214f, 0.005210f, -0.004436f, -0.005064f, 0.002048f, 0.003277f, 
      -0.012211f, -0.008093f, 0.000640f, -0.000994f, 0.004160f, 0.003159f, 0.005940f, 0.000771f, 0.000639f, -0.002324f, 
      -0.006135f, -0.005476f, -0.004437f, -0.000980f, 0.001343f, 0.003677f, 0.001198f, 0.001550f, -0.005743f, 0.002724f, 
      0.001147f, 0.000573f, -0.003450f, -0.000374f, 0.000570f, 0.003263f, 0.000966f, 0.008772f, -0.000115f, -0.004788f, 
      0.004245f, 0.010168f, 0.004774f, -0.006747f, -0.005782f, 0.001075f, 0.001951f, -0.009257f, -0.007357f, 0.005190f, 
      0.001171f, 0.004331f, 0.004900f, 0.003614f, 0.002784f, 0.000701f, 0.000230f, -0.003250f, -0.003121f, -0.004954f, 
      -0.002139f, 0.003426f, 0.002709f, 0.004038f, 0.001369f, -0.004265f, -0.000997f, -0.001357f, 0.000005f, 0.006949f, 
      0.000158f, -0.009055f, -0.005711f, 0.000167f, 0.005241f, 0.005525f, -0.002103f, -0.001474f, -0.001429f, 0.003353f, 
      0.000401f, -0.002314f, -0.004939f, 0.005436f, 0.004531f, -0.002983f, -0.001019f, -0.001499f, -0.002444f, -0.002251f, 
      0.001069f, -0.002342f, -0.002665f, 0.003781f, 0.001753f, 0.001011f, -0.000668f, -0.003093f, -0.001517f, 0.000142f, 
      -0.000610f, 0.000429f, -0.000296f, -0.000648f, -0.000544f, -0.001529f, -0.005346f, -0.003190f, 0.003469f, 0.001652f, 
      0.007311f, 0.000214f, 0.002142f, 0.000765f, 0.002215f, 0.003431f, -0.000318f, 0.000319f, 0.004808f, 0.003312f, 
      -0.001349f, 0.000791f, -0.001334f, -0.002376f, -0.003343f, 0.000785f, -0.002252f, -0.002947f, 0.005189f, 0.003690f, 
      0.000021f, -0.000287f, -0.000203f, -0.003692f, 0.000698f, 0.001925f, 0.001137f, 0.001844f, -0.001574f, -0.002843f, 
      -0.002742f, -0.000976f, 0.009079f, 0.006954f, 0.008723f, -0.000305f, -0.000642f, 0.000369f, -0.002469f, -0.004371f, 
      -0.004746f, -0.002974f, 0.004072f, 0.000774f, 0.004441f, 0.000025f, -0.005227f, -0.004806f, 0.002383f, 0.003597f, 
      -0.003172f, -0.001868f, 0.006811f, 0.002309f, -0.001352f, -0.004831f, 0.000921f, -0.000153f, 0.000347f, -0.000296f, 
      0.002062f, -0.002974f, -0.003204f, -0.003301f, -0.003780f, 0.003415f, 0.007394f, 0.009647f, 0.000328f, 0.000731f, 
      0.003293f, -0.003064f, -0.002853f, -0.003796f, -0.004107f, 0.002051f, 0.003904f, 0.000432f, 0.001545f, -0.003992f, 
      -0.002105f, 0.000393f, 0.002077f, -0.003629f, -0.001353f, 0.002843f, 0.003000f, -0.000566f, -0.005136f, -0.000213f, 
      0.002619f, -0.000707f, -0.001391f, 0.002516f, 0.002486f, 0.005359f, 0.005985f, -0.005231f, -0.004413f, -0.000743f, 
      -0.002590f, -0.007629f, -0.004123f, -0.003238f, -0.002920f, -0.000874f, -0.001422f, -0.006690f, -0.005168f, -0.003226f, 
      -0.002860f, 0.004908f, -0.000690f, 0.001711f, 0.001204f, 0.004830f, 0.000056f, -0.000556f, 0.002397f, -0.000522f, 
      0.000859f, 0.003532f, -0.000759f, -0.002093f, -0.001253f, 0.002936f, 0.006505f, 0.003609f, -0.003084f, -0.003066f, 
      -0.001489f, 0.000255f, -0.006967f, -0.004536f, -0.000869f, -0.002817f, 0.001624f, -0.000284f, -0.004725f, -0.004759f, 
      -0.007048f, -0.001441f, 0.002658f, 0.001796f, 0.000707f, -0.001426f, 0.000176f, -0.000195f, -0.004737f, -0.000879f, 
      0.003649f, 0.001030f, -0.000452f, 0.000615f, -0.004674f, -0.003837f, -0.001282f, -0.000186f, -0.009090f, -0.006216f, 
      0.012959f, 0.002037f, -0.002230f, 0.003125f, -0.002414f, 0.001970f, 0.003927f, 0.001922f, -0.003504f, -0.001005f, 
      -0.008051f, -0.000846f, -0.005406f, -0.002752f, -0.004363f, -0.003408f, -0.002825f, -0.001634f, -0.001501f, -0.001946f, 
      0.000018f, 0.002141f, 0.000099f, -0.000453f, 0.004754f, 0.000903f, -0.000662f, -0.004032f, -0.002394f, 0.008183f, 
      0.000384f, -0.001458f, 0.001376f, 0.001260f, 0.002340f, 0.000242f, -0.000241f, -0.000789f, -0.000035f, -0.003246f, 
      -0.001280f, -0.005712f, -0.001904f, -0.003249f, -0.000999f, 0.001184f, 0.001207f, 0.000013f, -0.001007f, 0.000897f, 
      0.001763f, 0.000947f, -0.001857f, 0.000863f, 0.002193f, 0.010119f, 0.006538f, -0.000561f, 0.005348f, 0.000919f, 
      0.001235f, -0.005850f, -0.002102f, -0.001245f, 0.000883f, -0.000866f, 0.001236f, 0.006491f, 0.004179f, -0.003129f, 
      0.000100f, 0.004634f, 0.001475f, 0.001957f, 0.001732f, -0.004320f, 0.000206f, -0.005005f, -0.004317f, -0.002037f, 
      -0.002768f, -0.002538f, 0.002952f, 0.004324f, -0.006548f, 0.003349f, 0.000860f, 0.002291f, -0.000490f, -0.003073f, 
      0.000290f, 0.001406f, -0.000704f, -0.000941f, 0.004844f, 0.003179f, -0.000629f, -0.002396f, 0.003016f, 0.000420f, 
      -0.000157f, 0.001575f, -0.004254f, -0.004776f, -0.002823f, -0.004180f, -0.001803f, -0.004575f, -0.001953f, 0.002241f, 
      0.001891f, 0.001092f, 0.002355f, 0.002853f, 0.005960f, 0.007907f, 0.003570f, 0.001096f, 0.004022f, 0.005467f, 
      -0.001101f, 0.001750f, -0.009349f, -0.006427f, -0.004873f, -0.006697f, 0.002979f, 0.002933f, -0.002162f, -0.002512f, 
      0.007949f, 0.004724f, -0.005813f, -0.001175f, 0.002084f, -0.001152f, 0.000086f, 0.002193f, -0.002243f, 0.000785f, 
      0.001867f, -0.000053f, -0.001299f, 0.001083f, 0.002528f, -0.003451f, -0.001929f, -0.001333f, -0.002736f, -0.001247f, 
      -0.003894f, 0.000048f, -0.003024f, -0.001708f, -0.004339f, 0.002034f, 0.003035f, 0.002186f, 0.003081f, -0.001813f, 
      -0.001120f, -0.004439f, -0.007385f, 0.002993f, 0.004208f, -0.002485f, -0.000702f, 0.002063f, -0.000729f, -0.003916f, 
      -0.002048f, -0.002654f, -0.000198f, -0.002830f, 0.000602f, -0.003079f, 0.002346f, 0.002055f, 0.000402f, -0.002414f, 
      0.001247f, -0.003004f, -0.001821f, 0.001923f, -0.000268f, -0.004707f, 0.002457f, 0.001736f, -0.003097f, -0.002581f, 
      0.002040f, 0.003256f, -0.001721f, -0.005850f, -0.003688f, -0.001244f, -0.002636f, -0.000624f, -0.002278f, 0.001018f, 
      0.003662f, -0.001098f, 0.001181f, 0.000524f, -0.002594f, -0.000116f, 0.000805f, 0.000409f, 0.003316f, 0.001834f, 
      -0.009140f, -0.004330f, -0.004924f, -0.001372f, 0.006376f, 0.002386f, 0.000717f, 0.000683f, -0.001079f, -0.001107f, 
      -0.001118f, 0.000745f, 0.002473f, -0.002132f, -0.001556f, 0.004023f, -0.000433f, 0.001501f, 0.000735f, -0.001673f, 
      0.001344f, -0.002649f, -0.002068f, -0.002855f, -0.002763f, -0.001284f, 0.001284f, -0.002826f, 0.002683f, -0.002523f, 
      -0.000819f, -0.000475f, 0.001332f, -0.000544f, -0.005547f, -0.003216f, 0.001257f, -0.000431f, -0.000878f, -0.000681f, 
      0.000493f, -0.000729f, -0.001875f, -0.000419f, 0.004069f, -0.000953f, -0.002528f, 0.000632f, 0.000736f, 0.000155f, 
      -0.002668f, 0.002786f, 0.004088f, 0.002506f, -0.000833f, -0.001802f, -0.001344f, -0.003190f, -0.002194f, -0.001789f, 
      0.000216f, 0.002202f, 0.001054f, -0.000313f, -0.002173f, -0.001551f, 0.000780f, -0.000101f, -0.002267f, -0.002733f, 
      0.001951f, 0.001631f, 0.002721f, -0.000934f, -0.002232f, -0.001325f, -0.001455f, -0.001291f, -0.000095f, -0.002873f, 
      0.000498f, -0.002253f, 0.002626f, 0.003868f, -0.001930f, -0.003868f, -0.004479f, -0.002909f, -0.001687f, -0.000991f, 
      0.003590f, 0.002438f, 0.001615f, 0.000893f, 0.003513f, 0.000768f, 0.000175f, 0.001132f, -0.000573f, 0.003418f, 
      0.000571f, -0.000967f, -0.001875f, -0.002873f, 0.000475f, -0.003338f, 0.000224f, 0.000468f, 0.002040f, 0.000975f, 
      0.000945f, 0.002990f, -0.000134f, -0.001772f, 0.000602f, 0.000287f, 0.001280f, -0.002114f, -0.001748f, -0.001896f, 
      0.003380f, -0.003571f, -0.001722f, 0.005491f, 0.003121f, -0.001247f, 0.000402f, -0.002227f, -0.000862f, -0.001270f, 
      0.000073f, 0.001982f, -0.001360f, -0.001527f, -0.003230f, 0.000518f, -0.001769f, -0.001404f, 0.004056f, 0.003142f, 
      0.000134f, -0.000278f, -0.000130f, -0.000375f, -0.003205f, -0.002759f, 0.000995f, -0.000621f, -0.001756f, -0.003220f, 
      -0.002267f, 0.001692f, 0.001855f, -0.001918f, 0.000920f, 0.000596f, 0.001114f, 0.002542f, 0.002976f, -0.000472f, 
      -0.001254f, -0.001874f, -0.000094f, -0.002158f, 0.000374f, 0.001682f, 0.000894f, 0.001071f, 0.005490f, -0.000217f, 
      -0.000514f, 0.002170f, 0.001684f, 0.000955f, 0.003096f, -0.000836f, -0.001889f, 0.000723f, -0.001022f, -0.004742f, 
      -0.003233f, 0.000213f, 0.000839f, 0.001108f, -0.000833f, 0.003861f, -0.004924f, -0.003760f, -0.000410f, 0.000145f, 
      0.000215f, -0.000499f, 0.000512f, -0.000283f, 0.001702f, 0.000460f, -0.001383f, -0.005665f, 0.000297f, -0.001153f, 
      0.001244f, -0.003389f, -0.002782f, -0.000306f, 0.003301f, 0.002487f, -0.002449f, -0.000804f, -0.000494f, 0.001538f, 
      -0.000107f, -0.001721f, 0.000088f, -0.000058f, 0.000853f, 0.005624f, -0.001655f, 0.003466f, -0.003075f, 0.001220f, 
      -0.001127f, -0.000436f, 0.002838f, 0.000085f, 0.001767f, -0.000087f, 0.003660f, 0.002137f, -0.000488f, -0.001886f, 
      -0.002459f, 0.000116f, 0.001245f, 0.002373f, 0.004640f, 0.001189f, -0.002659f, 0.000791f, -0.000948f, 0.005231f, 
      0.003808f, -0.001954f, -0.003407f, 0.002395f, -0.002782f, -0.002355f, 0.000193f, 0.002978f, -0.001867f, 0.000908f, 
      -0.001622f },
    { -0.009069f, 0.006614f, -0.007061f, 0.005838f, 0.001612f, -0.004607f, 0.002386f, -0.002645f, -0.005096f, 0.010161f, 
      -0.003799f, -0.007641f, 0.003932f, 0.007827f, -0.003392f, 0.006213f, 0.007232f, 0.193732f, 0.053184f, -0.001381f, 
      0.000472f, -0.004091f, 0.006609f, 0.002498f, 0.004216f, -0.001100f, 0.005264f, -0.001846f, -0.004384f, 0.004411f, 
      -0.000337f, 0.000294f, -0.002494f, 0.003747f, -0.006346f, -0.002090f, -0.005733f, 0.005093f, 0.001720f, 0.002944f, 
      0.004746f, 0.019042f, 0.007156f, 0.004881f, 0.003035f, -0.005155f, 0.002101f, 0.007519f, 0.007203f, 0.000058f, 
      -0.006648f, -0.002671f, -0.001870f, 0.000757f, -0.002191f, 0.009153f, 0.006626f, 0.020361f, -0.004756f, -0.001871f, 
      0.001809f, -0.007403f, -0.002045f, 0.005873f, 0.006359f, -0.003391f, -0.002465f, 0.002441f, 0.001842f, 0.000685f, 
      0.000684f, 0.006650f, 0.004226f, 0.004891f, 0.002516f, -0.003391f, -0.001413f, 0.002274f, 0.002010f, 0.004148f, 
      -0.000556f, 0.008079f, 0.001708f, 0.001442f, 0.003686f, 0.005564f, 0.002779f, 0.005183f, -0.006178f, -0.006832f, 
      -0.000313f, -0.001516f, -0.001763f, 0.001112f, 0.007216f, 0.005499f, -0.002520f, -0.002188f, 0.003948f, 0.000827f, 
      -0.002710f, -0.002224f, 0.005491f, 0.005538f, -0.001365f, 0.000073f, 0.005428f, 0.005007f, 0.000045f, -0.002755f, 
      0.004996f, 0.004154f, 0.002030f, 0.001322f, -0.002982f, -0.003487f, -0.002110f, -0.001130f, -0.000927f, 0.003048f, 
      0.003738f, 0.007376f, -0.005464f, -0.002622f, -0.003915f, -0.002813f, 0.001332f, -0.000544f, -0.002661f, -0.001917f, 
      0.007484f, 0.004305f, 0.007294f, 0.005743f, -0.002512f, -0.002422f, -0.005496f, -0.004823f, 0.002030f, 0.002170f, 
      -0.000507f, 0.000300f, 0.004928f, 0.001152f, -0.003671f, -0.000543f, 0.001330f, 0.002879f, -0.004187f, -0.001652f, 
      0.002393f, 0.000614f, 0.002265f, -0.000678f, -0.002362f, -0.001605f, -0.001663f, 0.000782f, 0.009412f, -0.009108f, 
      -0.006392f, -0.002474f, -0.003831f, 0.005173f, 0.003006f, 0.001286f, -0.000635f, 0.005782f, 0.002706f, 0.008314f, 
      0.006336f, -0.002936f, -0.001742f, -0.008386f, -0.004058f, 0.004140f, 0.002332f, 0.000525f, 0.000358f, 0.000182f, 
      0.001725f, -0.002495f, 0.000721f, 0.001222f, 0.001388f, -0.003933f, -0.004380f, 0.004909f, -0.000242f, 0.001628f, 
      -0.000737f, 0.000124f, -0.002227f, 0.001654f, 0.002866f, 0.005199f, 0.005404f, -0.002855f, 0.001117f, -0.006949f, 
      -0.002037f, 0.006690f, 0.004325f, -0.003269f, -0.000476f, -0.000163f, 0.001396f, -0.010132f, 0.000683f, 0.010161f, 
      0.001538f, 0.001624f, 0.001877f, 0.001509f, 0.002263f, 0.005918f, 0.004712f, 0.002383f, -0.001531f, -0.000339f, 
      -0.000656f, -0.000641f, 0.000646f, -0.002816f, -0.001835f, -0.004078f, -0.002220f, -0.004476f, -0.002951f, 0.000576f, 
      0.000030f, -0.000152f, -0.003275f, 0.000859f, -0.001723f, -0.002864f, 0.007518f, 0.003638f, -0.004343f, -0.003171f, 
      0.000660f, -0.001456f, -0.001977f, 0.001138f, 0.004302f, 0.002849f, -0.000222f, -0.000160f, 0.002298f, 0.002847f, 
      0.002068f, 0.004269f, 0.000986f, 0.000357f, -0.002784f, -0.002966f, 0.001389f, -0.000564f, -0.003246f, -0.001028f, 
      -0.001061f, -0.000789f, 0.000468f, -0.002710f, 0.002834f, 0.002050f, -0.008244f, -0.008913f, 0.004312f, 0.002493f, 
      0.002049f, 0.001587f, -0.003467f, -0.003213f, 0.000584f, 0.002693f, 0.008733f, 0.000233f, -0.001055f, -0.000079f, 
      -0.002379f, 0.001420f, 0.001750f, -0.001087f, -0.005156f, 0.001475f, 0.002128f, 0.002577f, -0.004127f, -0.003696f, 
      0.003843f, 0.000284f, -0.001855f, -0.004044f, 0.002984f, -0.000160f, 0.000805f, -0.005136f, -0.000797f, 0.002230f, 
      -0.004800f, -0.000401f, -0.002103f, 0.001656f, 0.000614f, -0.001820f, -0.001361f, -0.001034f, 0.002225f, 0.003631f, 
      -0.002305f, 0.001787f, -0.000161f, -0.002304f, 0.001043f, -0.000544f, 0.001523f, 0.002586f, 0.001920f, 0.002125f, 
      0.001589f, -0.003352f, -0.002496f, 0.002528f, 0.001485f, -0.002827f, -0.003322f, -0.001323f, 0.001010f, -0.003643f, 
      -0.003548f, -0.003115f, -0.000106f, 0.003282f, 0.003582f, -0.009063f, -0.004675f, 0.003218f, 0.002379f, -0.001995f, 
      -0.004999f, 0.013694f, -0.001252f, -0.004946f, -0.002085f, -0.000531f, 0.000536f, -0.000643f, -0.006980f, -0.008668f, 
      -0.004245f, -0.003204f, -0.001745f, 0.003326f, 0.003504f, 0.002776f, 0.003911f, 0.002995f, 0.000492f, 0.003644f, 
      0.002253f, 0.004010f, 0.003062f, 0.002928f, -0.000645f, -0.000859f, -0.007335f, -0.004550f, 0.002608f, 0.001697f, 
      -0.007243f, -0.002216f, 0.004664f, 0.000725f, -0.002307f, -0.000936f, 0.001339f, -0.001024f, -0.001403f, -0.004222f, 
      -0.003215f, -0.005420f, -0.000447f, -0.000847f, 0.002668f, 0.005295f, 0.001765f, 0.002750f, 0.000140f, -0.000250f, 
      0.001644f, 0.003137f, 0.001296f, 0.002954f, -0.000999f, 0.000578f, -0.000546f, -0.000740f, 0.004502f, 0.002071f, 
      -0.001738f, 0.001835f, -0.000052f, 0.000144f, 0.006709f, 0.002503f, -0.000269f, 0.002171f, 0.002553f, 0.000005f, 
      0.000237f, -0.000601f, -0.000411f, -0.002400f, -0.001639f, 0.001129f, 0.003892f, 0.001903f, 0.001767f, -0.002571f, 
      -0.001808f, 0.002762f, 0.000287f, 0.000135f, 0.003650f, 0.000468f, 0.001985f, 0.000725f, 0.001816f, 0.000892f, 
      -0.000521f, 0.001118f, -0.001719f, 0.002884f, 0.000195f, 0.000755f, 0.004937f, 0.002812f, 0.002851f, -0.000723f, 
      0.001667f, -0.000929f, -0.001642f, -0.002820f, 0.000451f, 0.005190f, 0.001199f, -0.001079f, -0.000356f, 0.000975f, 
      0.000879f, 0.001743f, -0.002207f, 0.004045f, 0.002407f, -0.000988f, -0.000466f, 0.000865f, -0.000505f, -0.001511f, 
      -0.000824f, -0.001182f, -0.003358f, -0.001950f, -0.002576f, -0.005054f, -0.004441f, 0.003579f, 0.000772f, 0.002758f, 
      0.003332f, 0.002757f, 0.004741f, -0.004583f, -0.000623f, -0.000959f, 0.000714f, -0.002477f, 0.000890f, -0.000841f, 
      -0.001493f, 0.002664f, -0.000928f, -0.000112f, 0.000779f, 0.001719f, -0.007485f, -0.000397f, -0.000681f, -0.002427f, 
      -0.001110f, -0.004719f, -0.004054f, -0.002694f, 0.005656f, 0.001630f, 0.003572f, 0.005254f, 0.001467f, 0.004811f, 
      -0.005220f, -0.000358f, -0.001793f, -0.002151f, 0.000217f, -0.000766f, -0.000313f, -0.002167f, -0.001410f, -0.001212f, 
      -0.001512f, 0.000422f, -0.003401f, -0.006421f, 0.005041f, 0.003321f, -0.004595f, -0.001400f, 0.003005f, 0.000453f, 
      -0.003714f, -0.002831f, -0.003371f, -0.000173f, 0.000545f, 0.001819f, -0.001110f, 0.000283f, 0.004044f, 0.002285f, 
      0.000621f, 0.001907f, -0.004596f, -0.000731f, 0.002235f, 0.001056f, -0.003998f, -0.006590f, -0.005839f, 0.002567f, 
      0.002621f, -0.002077f, 0.000707f, 0.000760f, -0.000396f, 0.002255f, -0.002708f, -0.001939f, -0.001406f, 0.003828f, 
      -0.001392f, 0.000030f, 0.000797f, -0.000351f, 0.003214f, -0.001135f, 0.001167f, -0.002522f, -0.001336f, -0.001122f, 
      -0.000726f, 0.028401f, 0.007112f, -0.000226f, 0.001013f, -0.005549f, -0.000078f, 0.001926f, -0.000553f, -0.010278f, 
      -0.001038f, -0.011881f, -0.010092f, -0.009574f, -0.001429f, 0.004871f, 0.006005f, 0.002912f, -0.001972f, 0.008947f, 
      0.005838f, 0.000584f, -0.000768f, 0.002926f, 0.001168f, 0.005380f, 0.001196f, 0.003526f, -0.001486f, 0.001986f, 
      -0.002338f, -0.001921f, 0.000258f, 0.000992f, -0.002176f, -0.005892f, -0.002624f, -0.003541f, -0.000789f, -0.002429f, 
      -0.002475f, -0.006057f, 0.001710f, 0.002559f, -0.002731f, -0.001792f, 0.001801f, 0.001159f, 0.000246f, 0.004801f, 
      -0.002490f, 0.001681f, -0.000770f, 0.002368f, 0.000410f, 0.004584f, -0.002484f, -0.002390f, -0.006063f, -0.002310f, 
      0.007750f, 0.001970f, -0.007306f, -0.004035f, -0.003798f, -0.002151f, -0.003476f, -0.000465f, -0.000552f, 0.001328f, 
      -0.000661f, -0.003006f, 0.000455f, 0.002494f, 0.002784f, 0.000474f, -0.000120f, 0.000150f, -0.003373f, -0.002265f, 
      0.002317f, 0.003953f, 0.001788f, -0.002688f, -0.002076f, -0.004254f, -0.006027f, 0.000400f, -0.004255f, 0.002506f, 
      0.002539f, -0.002971f, -0.001361f, -0.003591f, -0.000072f, 0.009672f, 0.002920f, 0.001523f, -0.001234f, 0.005138f, 
      0.002195f, 0.002983f, 0.001442f, -0.001746f, 0.000228f, -0.000561f, 0.001389f, -0.001659f, 0.000022f, 0.001715f, 
      0.001146f, -0.002732f, -0.002744f, -0.003451f, 0.003455f, 0.004999f, -0.000106f, -0.000200f, 0.002042f, -0.000501f, 
      0.001880f, 0.000851f, -0.001503f, -0.000524f, 0.000771f, 0.000218f, -0.002730f, 0.002661f, 0.002080f, -0.002095f, 
      -0.005551f, -0.002959f, 0.001445f, 0.002475f, -0.003234f, -0.001257f, 0.002818f, -0.000014f, 0.004195f, 0.002116f, 
      0.003511f, 0.000594f, 0.002877f, -0.000006f, 0.003034f, 0.001697f, 0.001442f, 0.000735f, -0.002462f, 0.002536f, 
      0.000341f, 0.001613f, -0.003035f, 0.003635f, 0.002989f, 0.004543f, 0.004019f, 0.001905f, 0.001097f, 0.000666f, 
      -0.001863f, -0.001659f, 0.002443f, -0.001909f, -0.001272f, 0.006536f, 0.002042f, 0.007697f, 0.003141f, 0.007401f, 
      0.003544f, -0.007777f, -0.004976f, -0.000581f, 0.002471f, -0.008817f, -0.000733f, -0.005834f, -0.000098f, 0.002965f, 
      0.000961f, -0.000840f, 0.000569f, 0.002079f, 0.000449f, -0.000128f, 0.001758f, 0.000051f, 0.000515f, 0.000429f, 
      0.000620f, -0.001453f, -0.000649f, -0.001724f, 0.002253f, -0.000301f, -0.005721f, -0.006029f, 0.004161f, 0.000905f, 
      -0.001550f, 0.003228f, 0.001263f, 0.004913f, -0.000171f, 0.002395f, -0.004194f, -0.002385f, -0.000741f, -0.003006f, 
      -0.003961f, 0.002756f, -0.000821f, -0.000947f, -0.000236f, 0.002971f, 0.004356f, -0.000677f, 0.002416f, -0.002488f, 
      0.000158f, -0.001789f, -0.000371f, -0.002295f, -0.000959f, -0.008125f, -0.002250f, 0.000796f, -0.000597f, -0.008589f, 
      -0.002563f, -0.003431f, 0.001856f, 0.000003f, 0.000174f, -0.001293f, -0.000510f, -0.000602f, -0.001000f, 0.001056f, 
      -0.001455f, -0.005696f, -0.002787f, -0.000448f, 0.001999f, 0.001780f, -0.003024f, 0.000167f, 0.000019f, 0.000294f, 
      0.001627f, 0.001152f, -0.004109f, -0.002956f, 0.003838f, 0.003647f, -0.004182f, -0.002519f, -0.000067f, -0.000507f, 
      -0.002391f, -0.001712f, -0.002435f, -0.000083f, -0.000531f, -0.007094f, 0.001245f, 0.001705f, 0.000192f, 0.000571f, 
      0.000116f, -0.002783f, 0.001286f, -0.005157f, -0.000503f, -0.002180f, -0.000934f, 0.000031f, -0.001388f, -0.001236f, 
      -0.002443f, 0.001415f, 0.002531f, 0.002243f, 0.006594f, 0.004076f, -0.004176f, 0.002502f, -0.001147f, 0.002196f, 
      0.006151f, -0.002750f, 0.002848f, -0.001834f, -0.000539f, -0.004498f, -0.000561f, 0.000348f, -0.002032f, -0.000306f, 
      -0.003253f },
    { -0.004118f, 0.007627f, 0.011240f, 0.002238f, 0.006254f, -0.012957f, 0.006983f, -0.003900f, 0.003178f, 0.003225f, 
      -0.014791f, -0.011318f, 0.009094f, 0.008689f, 0.007545f, -0.000688f, -0.010138f, -0.000541f, 0.001082f, 0.187747f, 
      0.054208f, 0.004775f, 0.009614f, -0.001931f, -0.009098f, -0.002318f, -0.004497f, 0.002727f, -0.006704f, 0.005235f, 
      0.009911f, -0.004347f, 0.002544f, 0.001778f, 0.004778f, -0.000866f, 0.003169f, 0.001718f, -0.003916f, -0.000777f, 
      -0.000321f, -0.004659f, -0.002205f, 0.014113f, 0.004902f, -0.003523f, -0.001924f, -0.006831f, -0.005168f, 0.002630f, 
      0.001132f, 0.010724f, 0.006053f, -0.008226f, 0.001511f, -0.009900f, -0.008085f, -0.003651f, -0.001071f, 0.024062f, 
      0.006040f, -0.002497f, -0.000972f, -0.005222f, 0.000161f, 0.000664f, 0.003640f, -0.003341f, -0.002945f, 0.001072f, 
      0.003173f, 0.006169f, 0.000834f, -0.001506f, 0.001985f, 0.015142f, 0.007824f, -0.004784f, -0.001703f, 0.000282f, 
      -0.000825f, 0.002319f, 0.006922f, 0.004196f, -0.000142f, -0.002125f, -0.003187f, -0.006542f, 0.001906f, 0.001143f, 
      0.005550f, 0.008674f, -0.002547f, 0.002577f, -0.005833f, -0.004204f, 0.002130f, 0.001327f, 0.007068f, 0.005651f, 
      0.000971f, 0.001778f, -0.004722f, -0.001979f, -0.000921f, 0.003403f, -0.004795f, -0.004141f, -0.002056f, 0.002365f, 
      0.004760f, 0.000404f, -0.005051f, -0.001620f, 0.011581f, 0.007269f, -0.002557f, -0.001986f, 0.003830f, 0.003385f, 
      0.011844f, 0.013158f, -0.006198f, -0.005046f, 0.005930f, 0.001395f, 0.000046f, 0.002096f, -0.007572f, -0.004297f, 
      0.013695f, 0.006334f, -0.001091f, -0.002276f, -0.007776f, -0.003469f, -0.012404f, -0.005284f, 0.000340f, -0.002787f, 
      0.004613f, 0.003080f, 0.001698f, -0.000724f, 0.007565f, 0.003311f, -0.005451f, 0.001011f, -0.008206f, -0.004064f, 
      0.002210f, 0.000837f, 0.006836f, 0.001854f, 0.007194f, 0.002464f, -0.000980f, -0.002623f, 0.015856f, -0.004560f, 
      -0.006881f, -0.003581f, -0.002220f, -0.001089f, 0.000216f, -0.002309f, -0.006483f, 0.011543f, 0.008523f, -0.004274f, 
      -0.001563f, -0.009196f, -0.003706f, -0.011147f, -0.004012f, 0.001185f, -0.001674f, 0.002817f, -0.000846f, 0.001034f, 
      0.000357f, 0.008389f, 0.005447f, -0.000118f, 0.000773f, -0.010001f, -0.003622f, 0.003136f, 0.001451f, 0.008878f, 
      0.002507f, 0.006564f, 0.004241f, -0.003303f, -0.002974f, -0.007930f, -0.000990f, 0.001368f, 0.000935f, 0.004195f, 
      0.004572f, -0.003068f, -0.001871f, -0.003868f, -0.003039f, 0.002702f, 0.001197f, 0.005050f, -0.002281f, 0.004182f, 
      -0.000739f, -0.002108f, -0.000486f, -0.000981f, -0.000456f, -0.003494f, 0.000853f, 0.000820f, 0.002853f, 0.003306f, 
      -0.000826f, 0.005176f, 0.001415f, -0.002487f, -0.001928f, -0.003668f, 0.000999f, -0.001545f, 0.001727f, -0.004092f, 
      -0.001613f, 0.001392f, 0.001273f, 0.001949f, 0.000236f, -0.003322f, -0.004097f, 0.000133f, -0.009038f, -0.002698f, 
      0.001912f, -0.003176f, 0.003434f, -0.001238f, 0.006612f, 0.000983f, -0.002007f, -0.001210f, -0.000160f, -0.000258f, 
      -0.002179f, 0.003145f, 0.003459f, 0.000857f, 0.002218f, 0.000786f, 0.005630f, 0.003692f, -0.000913f, -0.003164f, 
      0.000003f, 0.000701f, -0.004288f, 0.000217f, -0.003238f, -0.000783f, -0.003688f, -0.003022f, -0.003733f, 0.001194f, 
      -0.013029f, -0.002642f, -0.015169f, -0.003148f, -0.003264f, -0.004337f, 0.000631f, -0.001355f, 0.006500f, 0.000530f, 
      0.000090f, -0.002975f, 0.000338f, 0.003119f, -0.002776f, -0.002345f, 0.006712f, 0.003629f, -0.002107f, 0.001495f, 
      0.005799f, 0.003695f, -0.004283f, -0.000972f, 0.003546f, 0.004502f, -0.000339f, 0.001851f, 0.002638f, 0.000880f, 
      -0.002568f, 0.000450f, -0.000797f, -0.003960f, -0.002120f, -0.010790f, -0.006632f, -0.002701f, -0.002324f, 0.003235f, 
      0.001501f, 0.009995f, 0.001679f, -0.000467f, -0.002082f, -0.001463f, 0.001816f, -0.003739f, 0.000416f, 0.001582f, 
      0.000192f, -0.000420f, -0.001197f, 0.004670f, 0.002420f, -0.003970f, -0.005162f, 0.000113f, 0.002819f, 0.001941f, 
      0.001347f, 0.001324f, 0.002981f, -0.006319f, -0.001644f, 0.001073f, -0.003438f, 0.007814f, 0.006323f, -0.000219f, 
      0.001227f, -0.004765f, 0.004116f, -0.001352f, 0.001223f, 0.001093f, 0.000262f, 0.005225f, 0.001929f, 0.001136f, 
      -0.002609f, -0.002160f, -0.000148f, -0.001706f, -0.000791f, -0.004742f, -0.002760f, 0.003805f, 0.003340f, -0.000467f, 
      -0.001094f, 0.001948f, -0.000546f, 0.001612f, -0.000920f, -0.003951f, 0.001285f, 0.001297f, 0.007386f, 0.008314f, 
      -0.000034f, 0.000703f, -0.002276f, 0.000513f, -0.006224f, 0.000954f, 0.003579f, 0.001966f, 0.001395f, 0.000873f, 
      -0.000171f, -0.003580f, -0.001102f, -0.001326f, -0.003613f, -0.001778f, -0.002316f, -0.002867f, 0.001816f, -0.000774f, 
      -0.005999f, -0.000748f, 0.000439f, -0.000882f, 0.003793f, 0.002675f, -0.001865f, -0.003041f, 0.006905f, 0.005458f, 
      -0.000901f, 0.000886f, 0.001952f, 0.000985f, 0.008000f, 0.000601f, -0.001226f, 0.000496f, 0.009374f, 0.005862f, 
      -0.001560f, 0.000101f, 0.008718f, 0.002542f, 0.005586f, 0.001347f, 0.000982f, 0.002408f, 0.006034f, 0.000475f, 
      -0.002320f, -0.004894f, 0.001255f, 0.005174f, -0.006039f, -0.003257f, -0.001305f, 0.000202f, 0.004482f, 0.002998f, 
